{"learner":{"attributes":{"scikit_learn":"{\"_estimator_type\": \"ranker\"}"},"feature_names":["flight_price","num_stops","duration_minutes","departure_sin","departure_cos","arrival_sin","arrival_cos","airlines","is_multi_airline"],"feature_types":["float","int","float","float","float","float","float","float","int"],"gradient_booster":{"model":{"gbtree_model_param":{"num_parallel_tree":"1","num_trees":"100"},"iteration_indptr":[0,1,2,3,4,5,6,7,8,9,10,11,12,13,14,15,16,17,18,19,20,21,22,23,24,25,26,27,28,29,30,31,32,33,34,35,36,37,38,39,40,41,42,43,44,45,46,47,48,49,50,51,52,53,54,55,56,57,58,59,60,61,62,63,64,65,66,67,68,69,70,71,72,73,74,75,76,77,78,79,80,81,82,83,84,85,86,87,88,89,90,91,92,93,94,95,96,97,98,99,100],"tree_info":[0,0,0,0,0,0,0,0,0,0,0,0,0,0,0,0,0,0,0,0,0,0,0,0,0,0,0,0,0,0,0,0,0,0,0,0,0,0,0,0,0,0,0,0,0,0,0,0,0,0,0,0,0,0,0,0,0,0,0,0,0,0,0,0,0,0,0,0,0,0,0,0,0,0,0,0,0,0,0,0,0,0,0,0,0,0,0,0,0,0,0,0,0,0,0,0,0,0,0,0],"trees":[{"base_weights":[-2.8989927E-10,-1.2806986E-1,3.0390167E-1,-1.937979E-2,-2.5892103E-1,1.19943894E-1,2.6297215E-1,2.3207355E-2,-7.053673E-2,1.8118393E-1,-3.0191958E-1,3.6891136E-2,9.656045E-2,4.0965617E-2,-4.8847858E-2,-2.4218076E-1,7.233648E-3,9.311587E-2,-2.4629263E-2,-3.4674105E-1,-3.95968E-2,1.15810655E-1,-4.1675306E-4,-3.280032E-1,-1.2035851E-1,6.136608E-2,-3.516152E-2,-3.9740853E-2,-1.0599243E-1,-1.3211658E-2,4.692043E-2,-6.636346E-2,6.281159E-3,-1.3475914E-1,-9.500397E-3,-1.9601908E-2,-5.1510096E-2,5.781472E-4,3.5301454E-2,-2.2196427E-2,-2.6454998E-3],"categories":[],"categories_nodes":[],"categories_segments":[],"categories_sizes":[],"default_left":[0,0,0,0,0,0,0,0,0,0,0,0,0,0,0,0,0,0,0,0,0,0,0,0,0,0,0,0,0,0,0,0,0,0,0,0,0,0,0,0,0],"id":0,"left_children":[1,3,5,7,9,-1,11,13,15,17,19,-1,-1,21,-1,23,25,-1,-1,27,-1,29,31,33,35,37,39,-1,-1,-1,-1,-1,-1,-1,-1,-1,-1,-1,-1,-1,-1],"loss_changes":[7.353492E0,1.8854051E0,1.1475372E-1,1.621793E-1,1.1945028E0,0E0,3.082378E-1,1.420052E-1,4.519294E-1,2.2909793E-1,3.7500858E-1,0E0,0E0,1.18347615E-1,0E0,7.076663E-2,5.764868E-2,0E0,0E0,1.384449E-2,0E0,9.5147744E-2,1.252941E-1,1.8713498E-1,5.554214E-3,3.6533706E-2,1.3866996E-2,0E0,0E0,0E0,0E0,0E0,0E0,0E0,0E0,0E0,0E0,0E0,0E0,0E0,0E0],"parents":[2147483647,0,0,1,1,2,2,3,3,4,4,6,6,7,7,8,8,9,9,10,10,13,13,15,15,16,16,19,19,21,21,22,22,23,23,24,24,25,25,26,26],"right_children":[2,4,6,8,10,-1,12,14,16,18,20,-1,-1,22,-1,24,26,-1,-1,28,-1,30,32,34,36,38,40,-1,-1,-1,-1,-1,-1,-1,-1,-1,-1,-1,-1,-1,-1],"split_conditions":[1E0,8.141809E-1,8.1135905E-1,5E-1,9.2637664E-1,1.19943894E-1,9.469301E-1,8.7155744E-2,5.103532E-1,6.619337E-1,9.973615E-1,3.6891136E-2,9.656045E-2,4.25E-1,-4.8847858E-2,-2.1217768E-1,-8.2808204E-2,9.311587E-2,-2.4629263E-2,9.0633243E-1,-3.95968E-2,2.461533E-1,3.096687E-1,4.506699E-1,4.25E-1,-4.962165E-1,6.589242E-1,-3.9740853E-2,-1.0599243E-1,-1.3211658E-2,4.692043E-2,-6.636346E-2,6.281159E-3,-1.3475914E-1,-9.500397E-3,-1.9601908E-2,-5.1510096E-2,5.781472E-4,3.5301454E-2,-2.2196427E-2,-2.6454998E-3],"split_indices":[0,0,2,3,7,0,3,4,0,2,0,0,0,0,0,4,4,0,0,0,0,6,2,0,0,5,0,0,0,0,0,0,0,0,0,0,0,0,0,0,0],"split_type":[0,0,0,0,0,0,0,0,0,0,0,0,0,0,0,0,0,0,0,0,0,0,0,0,0,0,0,0,0,0,0,0,0,0,0,0,0,0,0,0,0],"sum_hessian":[1.8693553E2,1.3192038E2,5.501514E1,7.2689644E1,5.923074E1,1.3832563E1,4.1182575E1,3.99655E1,3.2724144E1,4.985788E0,5.4244953E1,1.3109028E1,2.807355E1,3.7194782E1,2.770719E0,9.544592E0,2.3179552E1,3.2244918E0,1.7612958E0,4.21E1,1.2144952E1,1.2602706E1,2.4592075E1,4.606728E0,4.9378633E0,9.983986E0,1.3195567E1,1.8814987E0,4.0218502E1,2.534947E0,1.00677595E1,1.3433079E0,2.3248766E1,2.9034474E0,1.7032808E0,3.4806147E0,1.4572489E0,5.359961E0,4.624025E0,4.602878E0,8.5926895E0],"tree_param":{"num_deleted":"0","num_feature":"9","num_nodes":"41","size_leaf_vector":"1"}},{"base_weights":[-6.594049E-9,2.5400692E-1,-2.8552288E-2,3.2822946E-1,-8.9400564E-4,-1.3648358E-2,-3.9282873E-1,1.8013126E-1,3.4919003E-1,-7.3954776E-2,1.1548126E-1,-5.5744316E-2,5.2635934E-2,-4.9687186E-1,-6.514205E-3,1.5637014E-2,6.0507882E-2,3.6053726E-1,4.500084E-2,2.7175648E-2,5.7600457E-2,-3.75565E-2,-1.5894596E-1,3.8610477E-2,3.4975097E-2,-3.63945E-2,-1.9557516E-1,6.708678E-3,-1.1384627E-2,6.3545E-2,1.1606262E-1,6.413833E-2,-1.2667256E-2,-1.3921214E-2,-1.3497472E-1,-1.7111458E-1,9.315291E-3,-2.830292E-3,1.0659601E-2,5.6394804E-3,2.394624E-2,-7.6543833E-3,6.820933E-2,-7.486633E-2,1.8496856E-2,-4.1446462E-2,-1.079137E-1],"categories":[],"categories_nodes":[],"categories_segments":[],"categories_sizes":[],"default_left":[0,0,0,0,0,0,0,0,0,0,0,0,0,0,0,0,0,0,0,0,0,0,0,0,0,0,0,0,0,0,0,0,0,0,0,0,0,0,0,0,0,0,0,0,0,0,0],"id":1,"left_children":[1,3,5,7,9,11,13,15,17,-1,19,21,23,25,27,-1,-1,29,-1,31,-1,33,35,-1,37,-1,-1,-1,-1,-1,-1,39,-1,41,43,45,-1,-1,-1,-1,-1,-1,-1,-1,-1,-1,-1],"loss_changes":[2.7205398E0,7.1743894E-1,1.8254206E0,2.8239489E-2,3.0132037E-1,9.09768E-1,5.280554E-1,5.2350014E-3,1.6422272E-3,0E0,4.314877E-2,3.6802417E-1,1.6576654E-1,5.265138E-1,4.3142326E-3,0E0,0E0,6.6285133E-3,0E0,1.4220523E-2,0E0,3.9117098E-1,7.3619425E-2,0E0,2.913162E-3,0E0,0E0,0E0,0E0,0E0,0E0,8.6391065E-4,0E0,3.932036E-1,7.6370907E-1,1.2385523E-1,0E0,0E0,0E0,0E0,0E0,0E0,0E0,0E0,0E0,0E0,0E0],"parents":[2147483647,0,0,1,1,2,2,3,3,4,4,5,5,6,6,7,7,8,8,10,10,11,11,12,12,13,13,14,14,17,17,19,19,21,21,22,22,24,24,31,31,33,33,34,34,35,35],"right_children":[2,4,6,8,10,12,14,16,18,-1,20,22,24,26,28,-1,-1,30,-1,32,-1,34,36,-1,38,-1,-1,-1,-1,-1,-1,40,-1,42,44,46,-1,-1,-1,-1,-1,-1,-1,-1,-1,-1,-1],"split_conditions":[-8.433914E-1,6.9167805E-1,2.6176948E-2,3.424284E-1,4.506699E-1,1E0,5.457026E-1,-5.2249855E-1,-8.5491186E-1,-7.3954776E-2,5.237515E-1,-5.5557024E-1,1E0,-9.1501616E-2,5.1877326E-1,1.5637014E-2,6.0507882E-2,5.6516445E-1,4.500084E-2,-9.896514E-1,5.7600457E-2,2.9654157E-1,-2.1217768E-1,3.8610477E-2,-8.09017E-1,-3.63945E-2,-1.9557516E-1,6.708678E-3,-1.1384627E-2,6.3545E-2,1.1606262E-1,8.5260314E-1,-1.2667256E-2,1.9509032E-1,-8.064446E-1,-3.6243805E-1,9.315291E-3,-2.830292E-3,1.0659601E-2,5.6394804E-3,2.394624E-2,-7.6543833E-3,6.820933E-2,-7.486633E-2,1.8496856E-2,-4.1446462E-2,-1.079137E-1],"split_indices":[3,2,5,2,0,0,2,5,3,0,0,4,2,4,5,0,0,0,0,3,0,6,5,0,3,0,0,0,0,0,0,2,0,6,4,4,0,0,0,0,0,0,0,0,0,0,0],"split_type":[0,0,0,0,0,0,0,0,0,0,0,0,0,0,0,0,0,0,0,0,0,0,0,0,0,0,0,0,0,0,0,0,0,0,0,0,0,0,0,0,0,0,0,0,0,0,0],"sum_hessian":[3.731187E2,3.690531E1,3.362134E2,2.8359783E1,8.545529E0,3.23995E2,1.2218395E1,4.705636E0,2.3654146E1,2.3877192E0,6.15781E0,1.982494E2,1.257456E2,9.400457E0,2.8179376E0,1.1710037E0,3.5346324E0,2.161287E1,2.0412774E0,3.4878821E0,2.669928E0,1.697052E2,2.8544203E1,2.2509453E1,1.03236145E2,3.2677157E0,6.132742E0,1.6191552E0,1.1987826E0,4.6121535E0,1.7000715E1,2.3252547E0,1.1626273E0,1.3749059E2,3.221461E1,2.6919489E1,1.6247146E0,1.0811468E0,1.02155E2,1.1626273E0,1.1626273E0,1.3204051E2,5.4500833E0,2.0183964E1,1.2030646E1,2.4389643E1,2.5298452E0],"tree_param":{"num_deleted":"0","num_feature":"9","num_nodes":"47","size_leaf_vector":"1"}},{"base_weights":[-9.81033E-9,-7.10642E-2,2.7373195E-2,3.2616485E-2,-1.7147563E-1,1.713503E-1,8.592751E-3,-3.7350245E-2,1.6928913E-1,-2.8908083E-1,-7.498107E-2,-1.1736674E-2,2.928297E-1,-3.28545E-2,4.4241544E-2,6.478658E-2,-8.789729E-2,-1.8442227E-2,1.9964926E-1,-1.01058334E-1,-1.4923087E-1,5.217015E-3,-3.0640665E-2,-1.05302624E-1,9.056904E-2,3.378182E-2,9.495386E-2,-2.6427949E-2,-2.0627995E-1,2.9942745E-2,3.1438883E-2,-1.2637688E-1,1.442683E-2,3.0003129E-2,6.996216E-2,-1.939159E-1,-5.631243E-2,-4.5268666E-2,-5.558407E-2,-4.620302E-2,4.9402595E-2,3.5274044E-2,-9.300252E-3,-2.2867676E-2,-7.610333E-2,-3.0891232E-3,9.583677E-3,-8.253323E-3,-6.0195517E-2,2.4293074E-2,-2.3627756E-2,-8.281622E-2,-2.8036557E-2,-2.1340242E-2,-6.8957726E-3,-6.4304244E-4,-2.7739024E-2,-3.0749815E-3,-1.7940061E-2],"categories":[],"categories_nodes":[],"categories_segments":[],"categories_sizes":[],"default_left":[0,0,0,0,0,0,0,0,0,0,0,0,0,0,0,0,0,0,0,0,0,0,0,0,0,0,0,0,0,0,0,0,0,0,0,0,0,0,0,0,0,0,0,0,0,0,0,0,0,0,0,0,0,0,0,0,0,0,0],"id":2,"left_children":[1,3,5,7,9,11,13,15,17,19,21,23,25,27,29,-1,31,-1,33,-1,35,-1,-1,37,39,-1,-1,41,43,-1,45,47,49,-1,-1,51,53,55,-1,57,-1,-1,-1,-1,-1,-1,-1,-1,-1,-1,-1,-1,-1,-1,-1,-1,-1,-1,-1],"loss_changes":[7.081654E-1,1.0595059E0,7.0916545E-1,4.9062812E-1,5.637506E-1,6.767498E-1,3.4652105E-1,4.583702E-1,1.3368154E-1,1.0275042E-1,7.624014E-2,1.3432398E-1,4.2198658E-2,1.1554384E-1,8.648534E-2,0E0,1.1726311E-1,0E0,2.8670192E-2,0E0,2.0747498E-2,0E0,0E0,2.6524961E-2,7.6174974E-2,0E0,0E0,7.333753E-2,3.6699027E-3,0E0,2.5251433E-3,1.5169072E-1,6.1633114E-2,0E0,0E0,1.33217275E-2,2.844194E-4,1.0948761E-2,0E0,9.309696E-4,0E0,0E0,0E0,0E0,0E0,0E0,0E0,0E0,0E0,0E0,0E0,0E0,0E0,0E0,0E0,0E0,0E0,0E0,0E0],"parents":[2147483647,0,0,1,1,2,2,3,3,4,4,5,5,6,6,7,7,8,8,9,9,10,10,11,11,12,12,13,13,14,14,16,16,18,18,20,20,23,23,24,24,27,27,28,28,30,30,31,31,32,32,35,35,36,36,37,37,39,39],"right_children":[2,4,6,8,10,12,14,16,18,20,22,24,26,28,30,-1,32,-1,34,-1,36,-1,-1,38,40,-1,-1,42,44,-1,46,48,50,-1,-1,52,54,56,-1,58,-1,-1,-1,-1,-1,-1,-1,-1,-1,-1,-1,-1,-1,-1,-1,-1,-1,-1,-1],"split_conditions":[5.7435197E-1,-6.2592345E-1,1E0,-1.4349262E-1,6.80877E-1,6.589242E-1,1E0,-9.170601E-1,3.096687E-1,2.461533E-1,9.0633243E-1,-3.4899496E-2,6.80877E-1,-6.087614E-1,8.1135905E-1,6.478658E-2,-8.5491186E-1,-1.8442227E-2,-8.7155744E-2,-1.01058334E-1,-8.660254E-1,5.217015E-3,-3.0640665E-2,5.237515E-1,5.237515E-1,3.378182E-2,9.495386E-2,5.925E-1,-9.0069824E-1,2.9942745E-2,-8.09017E-1,-9.702957E-1,-7.518398E-1,3.0003129E-2,6.996216E-2,4.8842874E-1,3.3130494E-1,-1.90809E-1,-5.558407E-2,8.145773E-1,4.9402595E-2,3.5274044E-2,-9.300252E-3,-2.2867676E-2,-7.610333E-2,-3.0891232E-3,9.583677E-3,-8.253323E-3,-6.0195517E-2,2.4293074E-2,-2.3627756E-2,-8.281622E-2,-2.8036557E-2,-2.1340242E-2,-6.8957726E-3,-6.4304244E-4,-2.7739024E-2,-3.0749815E-3,-1.7940061E-2],"split_indices":[2,3,7,4,0,0,0,5,2,6,0,5,0,4,2,0,3,0,4,0,4,0,0,0,0,0,0,0,3,0,3,3,3,0,0,0,2,5,0,2,0,0,0,0,0,0,0,0,0,0,0,0,0,0,0,0,0,0,0],"split_type":[0,0,0,0,0,0,0,0,0,0,0,0,0,0,0,0,0,0,0,0,0,0,0,0,0,0,0,0,0,0,0,0,0,0,0,0,0,0,0,0,0,0,0,0,0,0,0,0,0,0,0,0,0,0,0,0,0,0,0],"sum_hessian":[3.620477E2,1.002334E2,2.618143E2,4.964608E1,5.0587315E1,2.9273104E1,2.3254118E2,3.3316902E1,1.632918E1,2.190014E1,2.8687174E1,1.20362E1,1.7236904E1,1.0756203E2,1.24979164E2,4.998026E0,2.8318876E1,1.7793969E0,1.4549783E1,1.5273244E1,6.6268964E0,6.5990014E0,2.2088173E1,6.2713265E0,5.764873E0,2.6704037E0,1.4566501E1,1.0482978E2,2.7322445E0,2.2130371E1,1.0284879E2,2.0408916E1,7.9099584E0,4.668497E0,9.881286E0,3.7409184E0,2.885978E0,4.476858E0,1.7944682E0,2.1581945E0,3.6066787E0,2.46578E0,1.02364006E2,1.4264452E0,1.3057994E0,1.0019256E0,1.0184686E2,9.34301E0,1.1065907E1,4.6909037E0,3.219055E0,1.0965129E0,2.6444054E0,1.2123393E0,1.6736386E0,2.885547E0,1.5913113E0,1.0735054E0,1.084689E0],"tree_param":{"num_deleted":"0","num_feature":"9","num_nodes":"59","size_leaf_vector":"1"}},{"base_weights":[1.2273131E-8,-2.790656E-1,1.270214E-2,-3.1205755E-1,-1.1012818E-1,3.3706878E-3,7.782861E-2,-1.0515635E-1,-5.077045E-2,-3.9537523E-2,-1.0318697E-2,-1.2196864E-1,1.5197303E-2,-6.9629714E-2,-2.5535265E-2,-3.7130363E-2,3.5420775E-2,-8.010809E-2,-2.0780882E-2,1.18592285E-1,1.9862913E-2,-8.369116E-3,5.1608503E-2,-1.2476791E-2,4.1459523E-2,-1.224665E-2,9.191991E-3],"categories":[],"categories_nodes":[],"categories_segments":[],"categories_sizes":[],"default_left":[0,0,0,0,0,0,0,0,0,0,0,0,0,0,0,0,0,0,0,0,0,0,0,0,0,0,0],"id":3,"left_children":[1,3,5,7,9,11,-1,-1,-1,-1,-1,13,15,-1,-1,17,19,-1,21,23,25,-1,-1,-1,-1,-1,-1],"loss_changes":[1.2748336E0,5.289948E-2,7.9108846E-1,9.642363E-3,2.1992587E-3,4.9467626E-1,0E0,0E0,0E0,0E0,0E0,9.703007E-2,3.2374877E-1,0E0,0E0,3.1551415E-1,2.8266427E-1,0E0,1.15705594E-1,1.1412376E-1,1.2339226E-1,0E0,0E0,0E0,0E0,0E0,0E0],"parents":[2147483647,0,0,1,1,2,2,3,3,4,4,5,5,11,11,12,12,15,15,16,16,18,18,19,19,20,20],"right_children":[2,4,6,8,10,12,-1,-1,-1,-1,-1,14,16,-1,-1,18,20,-1,22,24,26,-1,-1,-1,-1,-1,-1],"split_conditions":[5.125E-1,8.145773E-1,2.5881904E-1,9.981348E-1,-1.3052619E-1,3.4379265E-1,7.782861E-2,-1.0515635E-1,-5.077045E-2,-3.9537523E-2,-1.0318697E-2,6.80877E-1,-9.3200785E-1,-6.9629714E-2,-2.5535265E-2,6.80877E-1,-6.9779044E-1,-8.010809E-2,-9.832549E-1,6.80877E-1,-5.8778524E-1,-8.369116E-3,5.1608503E-2,-1.2476791E-2,4.1459523E-2,-1.224665E-2,9.191991E-3],"split_indices":[0,2,4,6,4,2,0,0,0,0,0,0,4,0,0,0,4,0,5,0,4,0,0,0,0,0,0],"split_type":[0,0,0,0,0,0,0,0,0,0,0,0,0,0,0,0,0,0,0,0,0,0,0,0,0,0,0],"sum_hessian":[3.5764224E2,1.4657047E1,3.429852E2,1.1553563E1,3.1034844E0,3.3146262E2,1.1522594E1,7.956547E0,3.5970166E0,1.8376044E0,1.2658799E0,2.7776127E1,3.0368646E2,5.6356263E0,2.2140501E1,8.441891E1,2.1926758E2,4.5869884E0,7.983192E1,3.3508774E1,1.8575879E2,7.781524E1,2.0166795E0,3.5319097E0,2.9976864E1,2.7593468E1,1.5816533E2],"tree_param":{"num_deleted":"0","num_feature":"9","num_nodes":"27","size_leaf_vector":"1"}},{"base_weights":[5.975318E-9,-1.0152046E-1,2.4245275E-2,-2.3214279E-2,-2.031827E-1,1.9642454E-1,3.3718264E-3,-5.5617977E-2,2.7186389E-3,-2.4714014E-1,-5.3170387E-2,7.1271725E-2,6.708214E-2,-2.5559975E-2,3.421484E-2,-8.2783185E-2,3.9996658E-2,-4.125584E-2,-8.051415E-2,-1.0903595E-1,5.078028E-2,-7.908604E-3,4.4109903E-2,7.3074885E-2,-3.3433724E-2,2.116782E-2,2.5769219E-2,-1.240014E-1,-1.3509375E-2,3.4975223E-3,3.4004383E-2,-3.8677532E-2,-3.1884068E-3,-1.6205119E-2,3.5347372E-2,2.6809346E-2,-5.477232E-2,8.0007204E-4,5.2655738E-2,-2.2676986E-2,-2.3593523E-2,-2.631012E-3,7.872899E-3,-4.466646E-2,-1.8853301E-2,-2.2567783E-2,7.6915906E-3,2.4257196E-2,-2.4314621E-2,-2.5680566E-2,-1.0545765E-3,-7.6796715E-3,-4.869281E-3],"categories":[],"categories_nodes":[],"categories_segments":[],"categories_sizes":[],"default_left":[0,0,0,0,0,0,0,0,0,0,0,0,0,0,0,0,0,0,0,0,0,0,0,0,0,0,0,0,0,0,0,0,0,0,0,0,0,0,0,0,0,0,0,0,0,0,0,0,0,0,0,0,0],"id":4,"left_children":[1,3,5,7,9,11,13,-1,15,17,19,-1,21,23,25,27,29,-1,-1,31,33,35,-1,37,39,-1,41,43,45,47,-1,-1,-1,-1,-1,-1,49,-1,-1,-1,51,-1,-1,-1,-1,-1,-1,-1,-1,-1,-1,-1,-1],"loss_changes":[8.785908E-1,5.430889E-1,1.0348909E0,1.6873811E-1,1.834464E-1,1.4977741E-1,2.3109855E-1,0E0,1.1637178E-1,1.6137958E-2,5.217025E-2,0E0,5.4573234E-2,1.06275424E-1,3.664367E-2,3.0006573E-2,6.754228E-2,0E0,0E0,9.474687E-3,3.0880565E-2,3.0175209E-2,0E0,7.308574E-2,4.9861953E-2,0E0,1.9197464E-3,1.0448992E-3,1.4640647E-2,1.24128364E-1,0E0,0E0,0E0,0E0,0E0,0E0,6.593018E-3,0E0,0E0,0E0,1.0963045E-3,0E0,0E0,0E0,0E0,0E0,0E0,0E0,0E0,0E0,0E0,0E0,0E0],"parents":[2147483647,0,0,1,1,2,2,3,3,4,4,5,5,6,6,8,8,9,9,10,10,12,12,13,13,14,14,15,15,16,16,19,19,20,20,21,21,23,23,24,24,26,26,27,27,28,28,29,29,36,36,40,40],"right_children":[2,4,6,8,10,12,14,-1,16,18,20,-1,22,24,26,28,30,-1,-1,32,34,36,-1,38,40,-1,42,44,46,48,-1,-1,-1,-1,-1,-1,50,-1,-1,-1,52,-1,-1,-1,-1,-1,-1,-1,-1,-1,-1,-1,-1],"split_conditions":[6.80877E-1,-8.5491186E-1,1E0,4.25E-1,7.4712646E-1,1.5212339E-1,1E0,-5.5617977E-2,-9.908659E-1,-7.7162457E-1,5.6875E-1,7.1271725E-2,9.195402E-1,9.0633243E-1,8.1135905E-1,6.123234E-17,9.8162717E-1,-4.125584E-2,-8.051415E-2,1.5212339E-1,5.9130967E-1,7.667343E-1,4.4109903E-2,7.689487E-1,9.7066015E-1,2.116782E-2,-8.09017E-1,-9.995336E-1,5.639464E-1,8.41039E-1,3.4004383E-2,-3.8677532E-2,-3.1884068E-3,-1.6205119E-2,3.5347372E-2,2.6809346E-2,8.857336E-1,8.0007204E-4,5.2655738E-2,-2.2676986E-2,9.973615E-1,-2.631012E-3,7.872899E-3,-4.466646E-2,-1.8853301E-2,-2.2567783E-2,7.6915906E-3,2.4257196E-2,-2.4314621E-2,-2.5680566E-2,-1.0545765E-3,-7.6796715E-3,-4.869281E-3],"split_indices":[0,3,7,0,2,4,0,0,3,3,0,0,2,0,2,4,6,0,0,6,3,2,0,0,0,0,3,3,0,6,0,0,0,0,0,0,2,0,0,0,0,0,0,0,0,0,0,0,0,0,0,0,0],"split_type":[0,0,0,0,0,0,0,0,0,0,0,0,0,0,0,0,0,0,0,0,0,0,0,0,0,0,0,0,0,0,0,0,0,0,0,0,0,0,0,0,0,0,0,0,0,0,0,0,0,0,0,0,0],"sum_hessian":[3.549489E2,6.781304E1,2.8713586E2,3.9000744E1,2.8812298E1,3.0136663E1,2.569992E2,4.528915E0,3.447183E1,2.1782116E1,7.0301824E0,2.222836E1,7.908305E0,1.3269656E2,1.24302635E2,1.0095601E1,2.4376226E1,4.7487E0,1.7033415E1,4.5408835E0,2.4892988E0,4.5457006E0,3.3626046E0,9.197552E0,1.23499016E2,2.2051685E1,1.0225095E2,5.834205E0,4.2613955E0,1.6976505E1,7.399721E0,3.519459E0,1.0214245E0,1.0470133E0,1.4422855E0,1.1830958E0,3.3626046E0,6.059207E0,3.1383448E0,2.2107393E1,1.01391624E2,1.1466545E0,1.01104294E2,3.127146E0,2.7070594E0,1.2962651E0,2.9651306E0,8.887803E0,8.088703E0,1.6813023E0,1.6813023E0,7.7740265E1,2.3651354E1],"tree_param":{"num_deleted":"0","num_feature":"9","num_nodes":"53","size_leaf_vector":"1"}},{"base_weights":[-5.924958E-9,-1.0731406E-1,2.3182983E-2,-2.3320322E-1,-7.6655485E-2,1.7145972E-1,3.0703233E-3,-7.467374E-2,-2.5953034E-2,-1.143692E-1,2.844541E-2,1.9519237E-1,6.806968E-2,-2.3923345E-2,3.175655E-2,-1.5015636E-1,2.2183236E-2,-2.8918454E-2,1.0932343E-1,9.000425E-2,2.1736151E-1,-3.0261647E-2,1.3213313E-1,6.038856E-2,-3.0672636E-2,1.993839E-2,2.3633922E-2,-8.625677E-2,-1.9125137E-1,-7.268879E-3,-1.9551564E-2,-1.6713664E-2,4.781904E-2,4.0952682E-2,2.88076E-3,4.256413E-2,8.111907E-2,-1.9130597E-2,5.670068E-3,1.4528398E-2,4.704763E-2,7.6561084E-4,4.2836793E-2,-2.0074714E-2,-2.2211596E-2,-2.4234382E-3,7.2277323E-3,-1.5416111E-2,-4.665523E-2,-2.0760061E-2,-6.25301E-2,-1.22129535E-2,3.1692935E-3,-7.1361377E-3,-4.872612E-3],"categories":[],"categories_nodes":[],"categories_segments":[],"categories_sizes":[],"default_left":[0,0,0,0,0,0,0,0,0,0,0,0,0,0,0,0,0,0,0,0,0,0,0,0,0,0,0,0,0,0,0,0,0,0,0,0,0,0,0,0,0,0,0,0,0,0,0,0,0,0,0,0,0,0,0],"id":5,"left_children":[1,3,5,7,9,11,13,-1,-1,15,17,19,21,23,25,27,-1,29,31,33,35,37,39,41,43,-1,45,47,49,51,-1,-1,-1,-1,-1,-1,-1,-1,-1,-1,-1,-1,-1,-1,53,-1,-1,-1,-1,-1,-1,-1,-1,-1,-1],"loss_changes":[8.8227E-1,2.2527939E-1,8.691825E-1,5.770564E-3,2.099708E-1,7.213807E-2,2.0039795E-1,0E0,0E0,2.710961E-1,7.0771895E-2,4.5216203E-2,5.4614563E-2,7.776091E-2,3.3784002E-2,6.949884E-2,0E0,6.838623E-3,6.0581222E-2,2.3151126E-2,5.065477E-2,7.76696E-3,2.8462633E-3,4.8360556E-2,3.65917E-2,0E0,1.6949773E-3,2.7363762E-2,2.5650442E-2,4.5799734E-3,0E0,0E0,0E0,0E0,0E0,0E0,0E0,0E0,0E0,0E0,0E0,0E0,0E0,0E0,5.7455525E-4,0E0,0E0,0E0,0E0,0E0,0E0,0E0,0E0,0E0,0E0],"parents":[2147483647,0,0,1,1,2,2,3,3,4,4,5,5,6,6,9,9,10,10,11,11,12,12,13,13,14,14,15,15,17,17,18,18,19,19,20,20,21,21,22,22,23,23,24,24,26,26,27,27,28,28,29,29,44,44],"right_children":[2,4,6,8,10,12,14,-1,-1,16,18,20,22,24,26,28,-1,30,32,34,36,38,40,42,44,-1,46,48,50,52,-1,-1,-1,-1,-1,-1,-1,-1,-1,-1,-1,-1,-1,-1,54,-1,-1,-1,-1,-1,-1,-1,-1,-1,-1],"split_conditions":[6.80877E-1,5E-1,1E0,9.995336E-1,7.2605366E-1,9.195402E-1,1E0,-7.467374E-2,-2.5953034E-2,9.972502E-1,5.6875E-1,6.27558E-1,9.5977014E-1,9.0633243E-1,8.1135905E-1,-9.772311E-1,2.2183236E-2,5.237515E-1,7.912536E-1,-1.17537394E-1,8.4596574E-1,9.560514E-1,9.9864775E-1,7.689487E-1,9.7066015E-1,1.993839E-2,-8.09017E-1,4.1311696E-1,5.875E-1,-9.170601E-1,-1.9551564E-2,-1.6713664E-2,4.781904E-2,4.0952682E-2,2.88076E-3,4.256413E-2,8.111907E-2,-1.9130597E-2,5.670068E-3,1.4528398E-2,4.704763E-2,7.6561084E-4,4.2836793E-2,-2.0074714E-2,9.973615E-1,-2.4234382E-3,7.2277323E-3,-1.5416111E-2,-4.665523E-2,-2.0760061E-2,-6.25301E-2,-1.22129535E-2,3.1692935E-3,-7.1361377E-3,-4.872612E-3],"split_indices":[0,0,7,6,2,2,0,0,0,6,0,2,2,0,2,3,0,0,2,4,0,2,2,0,0,0,3,2,0,6,0,0,0,0,0,0,0,0,0,0,0,0,0,0,0,0,0,0,0,0,0,0,0,0,0],"split_type":[0,0,0,0,0,0,0,0,0,0,0,0,0,0,0,0,0,0,0,0,0,0,0,0,0,0,0,0,0,0,0,0,0,0,0,0,0,0,0,0,0,0,0,0,0,0,0,0,0,0,0,0,0,0,0],"sum_hessian":[3.5263E2,6.2000534E1,2.906295E2,1.0848469E1,5.1152065E1,3.381439E1,2.568151E2,9.169672E0,1.6787965E0,3.7579205E1,1.3572861E1,2.6779394E1,7.0349946E0,1.3239642E2,1.2441867E2,3.1748356E1,5.830849E0,8.316623E0,5.2562375E0,5.54228E0,2.1237114E1,2.9833953E0,4.051599E0,9.223936E0,1.23172485E2,2.2235031E1,1.0218364E2,1.3639279E1,1.8109077E1,5.9587307E0,2.3578925E0,1.1973404E0,4.058897E0,3.0692039E0,2.4730766E0,1.0280662E1,1.0956452E1,1.5974876E0,1.3859078E0,1.5974876E0,2.4541116E0,6.025588E0,3.198348E0,2.2004965E1,1.0116753E2,1.2195479E0,1.0096409E2,1.0230568E1,3.4087114E0,2.8551903E0,1.5253886E1,1.6262877E0,4.3324428E0,7.7680725E1,2.3486797E1],"tree_param":{"num_deleted":"0","num_feature":"9","num_nodes":"55","size_leaf_vector":"1"}},{"base_weights":[5.965156E-9,-1.12600766E-1,2.2728398E-2,-1.4116468E-1,-2.6906295E-2,1.6047843E-1,4.2252573E-3,-1.8239087E-1,-9.40682E-2,2.1966018E-2,-5.103854E-2,1.8249567E-1,1.09764785E-1,-1.9411856E-2,2.9634392E-2,-5.8728117E-2,-1.8103527E-2,-1.0847812E-1,2.9021373E-3,-2.7008304E-2,-2.9732274E-2,5.7148207E-2,1.4663104E-2,4.1718856E-2,4.588352E-2,7.386867E-2,-2.8383123E-2,1.875067E-2,2.1905014E-2,-1.1348285E-2,-1.4789361E-1,1.7057217E-3,-8.496259E-2,-4.5435928E-4,1.6292905E-2,-8.523745E-3,7.670874E-2,-1.8139245E-2,-2.0887135E-2,-2.2196877E-3,6.705203E-3,-3.322021E-2,-6.754162E-2,1.3328502E-2,-8.265768E-3,-9.4670255E-4,-4.2557266E-2,7.2909286E-4,-8.701029E-3,-6.6817575E-3,-4.6675475E-3],"categories":[],"categories_nodes":[],"categories_segments":[],"categories_sizes":[],"default_left":[0,0,0,0,0,0,0,0,0,0,0,0,0,0,0,0,0,0,0,0,0,0,0,0,0,0,0,0,0,0,0,0,0,0,0,0,0,0,0,0,0,0,0,0,0,0,0,0,0,0,0],"id":6,"left_children":[1,3,5,7,9,11,13,15,17,-1,19,21,23,25,27,-1,-1,29,-1,-1,31,-1,-1,33,-1,35,37,-1,39,-1,41,43,45,-1,-1,47,-1,-1,49,-1,-1,-1,-1,-1,-1,-1,-1,-1,-1,-1,-1],"loss_changes":[9.019821E-1,1.4109087E-1,7.467596E-1,6.8582475E-2,4.2477664E-2,1.8712342E-2,1.5646118E-1,2.4870634E-2,3.4949705E-2,0E0,8.545093E-3,1.4933944E-2,3.1855613E-2,1.1512788E-1,3.050945E-2,0E0,0E0,5.0081193E-2,0E0,0E0,1.7904604E-2,0E0,0E0,3.580818E-3,0E0,1.8387237E-1,2.8542139E-2,0E0,1.5122294E-3,0E0,1.0920286E-2,1.0597045E-2,1.69127E-2,0E0,0E0,2.1599224E-3,0E0,0E0,4.0641427E-4,0E0,0E0,0E0,0E0,0E0,0E0,0E0,0E0,0E0,0E0,0E0,0E0],"parents":[2147483647,0,0,1,1,2,2,3,3,4,4,5,5,6,6,7,7,8,8,10,10,11,11,12,12,13,13,14,14,17,17,20,20,23,23,25,25,26,26,28,28,30,30,31,31,32,32,35,35,38,38],"right_children":[2,4,6,8,10,12,14,16,18,-1,20,22,24,26,28,-1,-1,30,-1,-1,32,-1,-1,34,-1,36,38,-1,40,-1,42,44,46,-1,-1,48,-1,-1,50,-1,-1,-1,-1,-1,-1,-1,-1,-1,-1,-1,-1],"split_conditions":[6.80877E-1,7.605364E-1,1E0,9.351352E-1,7.7899045E-1,8.40382E-1,1E0,5.8778524E-1,3.9874908E-1,2.1966018E-2,5.103532E-1,1.5212339E-1,9.195402E-1,9.0633243E-1,8.1135905E-1,-5.8728117E-2,-1.8103527E-2,-3.1730467E-1,2.9021373E-3,-2.7008304E-2,-3.9073113E-1,5.7148207E-2,1.4663104E-2,8.857336E-1,4.588352E-2,8.141809E-1,9.7066015E-1,1.875067E-2,-8.09017E-1,-1.1348285E-2,-9.772311E-1,8.5260314E-1,-9.170601E-1,-4.5435928E-4,1.6292905E-2,7.689487E-1,7.670874E-2,-1.8139245E-2,9.973615E-1,-2.2196877E-3,6.705203E-3,-3.322021E-2,-6.754162E-2,1.3328502E-2,-8.265768E-3,-9.4670255E-4,-4.2557266E-2,7.2909286E-4,-8.701029E-3,-6.6817575E-3,-4.6675475E-3],"split_indices":[0,2,7,6,2,2,0,5,4,0,0,4,2,0,2,0,0,5,0,0,3,0,0,2,0,0,0,0,3,0,3,2,6,0,0,0,0,0,0,0,0,0,0,0,0,0,0,0,0,0,0],"split_type":[0,0,0,0,0,0,0,0,0,0,0,0,0,0,0,0,0,0,0,0,0,0,0,0,0,0,0,0,0,0,0,0,0,0,0,0,0,0,0,0,0,0,0,0,0,0,0,0,0,0,0],"sum_hessian":[3.5044214E2,5.819229E1,2.9224985E2,4.3159084E1,1.5033207E1,3.3698933E1,2.585509E2,2.1481989E1,2.1677095E1,2.5245516E0,1.2508656E1,2.1685606E1,1.2013329E1,1.340684E2,1.24482506E2,1.881672E1,2.66527E0,1.899325E1,2.6838458E0,3.2803726E0,9.228283E0,2.0059217E1,1.6263872E0,5.42712E0,6.5862083E0,1.1128079E1,1.2294032E2,2.2351276E1,1.02131226E2,7.503419E0,1.1489832E1,6.4984026E0,2.72988E0,1.4224693E0,4.0046506E0,8.313882E0,2.8141973E0,2.1946861E1,1.0099346E2,1.2962446E0,1.00834984E2,9.400947E0,2.088885E0,2.4306734E0,4.0677295E0,1.5527334E0,1.1771467E0,5.990857E0,2.3230245E0,7.763057E1,2.3362888E1],"tree_param":{"num_deleted":"0","num_feature":"9","num_nodes":"51","size_leaf_vector":"1"}},{"base_weights":[1.4589448E-8,-9.4161294E-2,1.8197432E-2,-1.6931896E-1,-7.444992E-2,1.2027111E-1,4.306009E-3,-5.3726774E-2,-1.1913508E-2,-8.333517E-3,-1.1123129E-1,1.2735836E-1,-1.7299714E-2,-1.707933E-2,2.7379517E-2,-4.4479992E-2,8.4409446E-2,-7.544998E-2,-5.8816288E-2,1.5908165E-1,5.857401E-2,7.5406745E-2,-2.645683E-2,1.7038254E-2,2.046688E-2,8.65364E-3,-6.6362344E-2,3.0689942E-2,4.6255575E-3,-3.1138994E-2,-1.00407586E-1,9.4708934E-2,5.4579023E-2,4.427157E-2,1.849205E-2,-1.4024202E-2,7.8992344E-2,-1.6615102E-2,-1.9690584E-2,-2.0211881E-3,6.270367E-3,-4.049008E-3,9.293712E-3,-6.649109E-3,-2.2718765E-2,8.581688E-3,-1.252898E-2,-3.2692105E-2,-1.5412682E-2,3.763354E-2,4.5448383E-3,-5.4640503E-4,2.762384E-2,6.905772E-4,-1.2452385E-2,-6.294018E-3,-4.410831E-3],"categories":[],"categories_nodes":[],"categories_segments":[],"categories_sizes":[],"default_left":[0,0,0,0,0,0,0,0,0,0,0,0,0,0,0,0,0,0,0,0,0,0,0,0,0,0,0,0,0,0,0,0,0,0,0,0,0,0,0,0,0,0,0,0,0,0,0,0,0,0,0,0,0,0,0,0,0],"id":7,"left_children":[1,3,5,7,9,11,13,-1,-1,15,17,19,-1,21,23,25,27,29,-1,31,33,35,37,-1,39,41,43,-1,-1,45,47,49,-1,-1,51,53,-1,-1,55,-1,-1,-1,-1,-1,-1,-1,-1,-1,-1,-1,-1,-1,-1,-1,-1,-1,-1],"loss_changes":[6.012877E-1,7.159054E-2,4.164727E-1,6.8474114E-3,1.1290699E-1,5.1722467E-2,1.2870616E-1,0E0,0E0,6.347068E-2,7.6248646E-2,6.520897E-2,0E0,1.1950807E-1,2.4334468E-2,1.623866E-2,5.0146542E-3,2.2002071E-2,0E0,1.6291618E-2,4.1372295E-2,2.1766524E-1,2.3132816E-2,0E0,1.3590083E-3,2.7990164E-3,2.319973E-3,0E0,0E0,7.3113535E-3,3.1769276E-4,1.7800033E-2,0E0,0E0,1.4618419E-2,4.392616E-3,0E0,0E0,3.4661219E-4,0E0,0E0,0E0,0E0,0E0,0E0,0E0,0E0,0E0,0E0,0E0,0E0,0E0,0E0,0E0,0E0,0E0,0E0],"parents":[2147483647,0,0,1,1,2,2,3,3,4,4,5,5,6,6,9,9,10,10,11,11,13,13,14,14,15,15,16,16,17,17,19,19,20,20,21,21,22,22,24,24,25,25,26,26,29,29,30,30,31,31,34,34,35,35,38,38],"right_children":[2,4,6,8,10,12,14,-1,-1,16,18,20,-1,22,24,26,28,30,-1,32,34,36,38,-1,40,42,44,-1,-1,46,48,50,-1,-1,52,54,-1,-1,56,-1,-1,-1,-1,-1,-1,-1,-1,-1,-1,-1,-1,-1,-1,-1,-1,-1,-1],"split_conditions":[6.80877E-1,4.8842874E-1,1E0,9.772311E-1,6.4914423E-1,1.391731E-1,1E0,-5.3726774E-2,-1.1913508E-2,5.688185E-1,-7.7162457E-1,8.857336E-1,-1.7299714E-2,9.0633243E-1,8.1135905E-1,-9.624552E-1,5.9317905E-1,9.2637664E-1,-5.8816288E-2,6.3437927E-1,-9.5501995E-1,8.141809E-1,9.7066015E-1,1.7038254E-2,-8.09017E-1,8.5260314E-1,6.9167805E-1,3.0689942E-2,4.6255575E-3,3.204868E-1,5.2335955E-2,6.27558E-1,5.4579023E-2,4.427157E-2,9.849095E-1,7.689487E-1,7.8992344E-2,-1.6615102E-2,9.973615E-1,-2.0211881E-3,6.270367E-3,-4.049008E-3,9.293712E-3,-6.649109E-3,-2.2718765E-2,8.581688E-3,-1.252898E-2,-3.2692105E-2,-1.5412682E-2,3.763354E-2,4.5448383E-3,-5.4640503E-4,2.762384E-2,6.905772E-4,-1.2452385E-2,-6.294018E-3,-4.410831E-3],"split_indices":[0,0,7,3,0,5,0,0,0,0,3,2,0,0,2,3,0,7,0,2,5,0,0,0,3,2,2,0,0,2,4,2,0,0,0,0,0,0,0,0,0,0,0,0,0,0,0,0,0,0,0,0,0,0,0,0,0],"split_type":[0,0,0,0,0,0,0,0,0,0,0,0,0,0,0,0,0,0,0,0,0,0,0,0,0,0,0,0,0,0,0,0,0,0,0,0,0,0,0,0,0,0,0,0,0,0,0,0,0,0,0,0,0,0,0,0,0],"sum_hessian":[3.4891348E2,5.583332E1,2.9308017E2,1.0023755E1,4.5809563E1,3.4190643E1,2.5888953E2,8.966076E0,1.057679E0,1.6813322E1,2.8996243E1,3.315435E1,1.0362924E0,1.3449481E2,1.2439472E2,1.2472552E1,4.34077E0,2.172245E1,7.273792E0,2.1791409E1,1.1362941E1,1.17333E1,1.22761505E2,2.2297667E1,1.0209705E2,3.8146203E0,8.657932E0,3.0635462E0,1.2772236E0,8.636482E0,1.3085968E1,7.0562773E0,1.473513E1,2.6956882E0,8.667253E0,8.576639E0,3.1566615E0,2.1909483E1,1.0085202E2,1.3764173E0,1.0072064E2,2.113324E0,1.7012963E0,2.1026263E0,6.555306E0,1.0484033E0,7.5880795E0,1.009911E1,2.9868584E0,4.6738744E0,2.3824031E0,7.5565557E0,1.1106967E0,5.955279E0,2.6213603E0,7.758745E1,2.3264576E1],"tree_param":{"num_deleted":"0","num_feature":"9","num_nodes":"57","size_leaf_vector":"1"}},{"base_weights":[-3.2645378E-9,-7.8808844E-2,1.3208633E-2,1.8542662E-2,-8.4984496E-2,-2.0759257E-2,2.5668079E-2,-1.10778265E-1,-1.5373758E-2,-3.6619898E-2,-1.75581E-2,1.4133452E-1,1.706686E-2,-3.8725838E-2,-1.3535449E-1,-5.957848E-3,2.3317905E-2,2.1390595E-2,2.1032052E-1,-2.837682E-2,2.8362252E-2,-2.2207364E-2,-2.6124564E-3,-4.4374846E-2,-2.447812E-2,-2.1032026E-2,1.6829884E-2,3.276845E-2,7.718694E-2,-1.0455645E-1,-1.5691247E-2,4.558807E-2,2.2968784E-2,-1.0519439E-2,5.262686E-3,-1.389682E-2,-3.9291218E-2,-2.7535813E-2,-1.3465506E-3,4.435327E-2,6.027402E-3],"categories":[],"categories_nodes":[],"categories_segments":[],"categories_sizes":[],"default_left":[0,0,0,0,0,0,0,0,0,0,0,0,0,0,0,0,0,0,0,0,0,0,0,0,0,0,0,0,0,0,0,0,0,0,0,0,0,0,0,0,0],"id":8,"left_children":[1,3,5,-1,7,9,11,13,-1,-1,15,17,19,21,23,-1,-1,25,27,29,31,-1,33,-1,-1,-1,-1,-1,-1,35,37,-1,39,-1,-1,-1,-1,-1,-1,-1,-1],"loss_changes":[3.6408576E-1,4.8852324E-2,1.273105E-1,0E0,3.654322E-2,2.4106417E-2,2.1607344E-1,4.1921288E-2,0E0,0E0,1.9005707E-2,1.20140314E-1,1.0631373E-1,1.022748E-2,1.0723174E-3,0E0,0E0,2.4935631E-2,1.676637E-2,3.8386602E-2,1.06588155E-1,0E0,3.9360523E-3,0E0,0E0,0E0,0E0,0E0,0E0,2.756372E-3,3.0859664E-2,0E0,5.430644E-2,0E0,0E0,0E0,0E0,0E0,0E0,0E0,0E0],"parents":[2147483647,0,0,1,1,2,2,4,4,5,5,6,6,7,7,10,10,11,11,12,12,13,13,14,14,17,17,18,18,19,19,20,20,22,22,29,29,30,30,32,32],"right_children":[2,4,6,-1,8,10,12,14,-1,-1,16,18,20,22,24,-1,-1,26,28,30,32,-1,34,-1,-1,-1,-1,-1,-1,36,38,-1,40,-1,-1,-1,-1,-1,-1,-1,-1],"split_conditions":[4.2007002E-1,-9.908659E-1,-9.7904545E-1,1.8542662E-2,8.141809E-1,6.80877E-1,-8.433914E-1,-9.908659E-1,-1.5373758E-2,-3.6619898E-2,9.973615E-1,8.4352076E-1,8.4352076E-1,6.123234E-17,-4.363309E-3,-5.957848E-3,2.3317905E-2,6.07167E-1,-9.5371693E-1,5.103532E-1,9.8294765E-1,-2.2207364E-2,5.639464E-1,-4.4374846E-2,-2.447812E-2,-2.1032026E-2,1.6829884E-2,3.276845E-2,7.718694E-2,-9.584575E-2,-9.5105654E-1,4.558807E-2,-8.594064E-1,-1.0519439E-2,5.262686E-3,-1.389682E-2,-3.9291218E-2,-2.7535813E-2,-1.3465506E-3,4.435327E-2,6.027402E-3],"split_indices":[2,6,4,0,0,0,4,3,0,0,0,0,0,4,4,0,0,2,5,0,0,0,0,0,0,0,0,0,0,5,5,0,6,0,0,0,0,0,0,0,0],"split_type":[0,0,0,0,0,0,0,0,0,0,0,0,0,0,0,0,0,0,0,0,0,0,0,0,0,0,0,0,0,0,0,0,0,0,0,0,0,0,0,0,0],"sum_hessian":[3.477605E2,4.920633E1,2.985542E2,1.6911407E0,4.7515186E1,7.994256E1,2.1861163E2,2.5634075E1,2.1881113E1,1.3113188E0,7.863123E1,1.4063138E1,2.045485E2,7.1747947E0,1.845928E1,7.754976E1,1.0814732E0,5.613384E0,8.449755E0,4.0419662E1,1.6412883E2,3.097444E0,4.0773506E0,1.3543374E1,4.9159064E0,1.2633063E0,4.3500776E0,3.7354472E0,4.7143073E0,4.7361135E0,3.5683548E1,5.726404E0,1.5840242E2,1.2786851E0,2.7986655E0,2.3371842E0,2.398929E0,3.656121E0,3.2027428E1,2.4330368E0,1.5596939E2],"tree_param":{"num_deleted":"0","num_feature":"9","num_nodes":"41","size_leaf_vector":"1"}},{"base_weights":[9.593519E-9,-1.5781245E-1,4.4298996E-3,-5.385866E-2,-1.581131E-2,-3.222205E-2,1.4682623E-2,-2.5903722E-2,-3.7243627E-2,9.9391885E-2,5.5029043E-3,3.966597E-2,-3.868671E-2,-2.7487326E-2,1.3872358E-1,-1.51388105E-2,2.4673572E-2,-4.569127E-2,4.0629603E-2,-4.924867E-2,-4.7737182E-4,-2.4073297E-2,1.4192181E-2,6.5029256E-2,1.6131182E-1,-1.7243303E-2,1.0451813E-2,1.5586287E-2,1.8238163E-2,-3.0437881E-2,-3.8370981E-3,-2.6916558E-2,-8.742592E-3,-1.273371E-2,4.3176715E-3,1.8215489E-2,-9.073125E-3,4.9740206E-3,2.84857E-2,6.5514194E-3,5.1961623E-2,-5.645146E-3,4.542707E-3,-2.3305195E-3,5.5906223E-3],"categories":[],"categories_nodes":[],"categories_segments":[],"categories_sizes":[],"default_left":[0,0,0,0,0,0,0,0,0,0,0,0,0,0,0,0,0,0,0,0,0,0,0,0,0,0,0,0,0,0,0,0,0,0,0,0,0,0,0,0,0,0,0,0,0],"id":9,"left_children":[1,3,5,-1,-1,7,9,11,-1,13,15,17,19,21,23,25,27,29,-1,31,33,-1,35,37,39,41,-1,-1,43,-1,-1,-1,-1,-1,-1,-1,-1,-1,-1,-1,-1,-1,-1,-1,-1],"loss_changes":[2.4383985E-1,1.2276262E-2,1.2796539E-1,0E0,0E0,4.0038355E-2,2.0613985E-1,6.1000817E-2,0E0,1.3320884E-1,9.568926E-2,1.0484036E-1,2.414143E-2,1.646596E-2,2.2733659E-2,1.2865057E-2,2.1044299E-2,1.1782421E-2,0E0,3.555292E-2,9.333371E-3,0E0,1.1643697E-2,7.642854E-3,2.0438075E-2,6.0222223E-3,0E0,0E0,1.2077913E-3,0E0,0E0,0E0,0E0,0E0,0E0,0E0,0E0,0E0,0E0,0E0,0E0,0E0,0E0,0E0,0E0],"parents":[2147483647,0,0,1,1,2,2,5,5,6,6,7,7,9,9,10,10,11,11,12,12,13,13,14,14,15,15,16,16,17,17,19,19,20,20,22,22,23,23,24,24,25,25,28,28],"right_children":[2,4,6,-1,-1,8,10,12,-1,14,16,18,20,22,24,26,28,30,-1,32,34,-1,36,38,40,42,-1,-1,44,-1,-1,-1,-1,-1,-1,-1,-1,-1,-1,-1,-1,-1,-1,-1,-1],"split_conditions":[4.506699E-1,7.647059E-1,6.3437927E-1,-5.385866E-2,-1.581131E-2,6.27558E-1,9.2637664E-1,-8.433914E-1,-3.7243627E-2,6.589242E-1,1E0,4.539905E-1,9.3819135E-1,8.448276E-1,-7.1018535E-1,6.2251467E-1,8.1135905E-1,1.5212339E-1,4.0629603E-2,6.80877E-1,-1.4349262E-1,-2.4073297E-2,8.965517E-1,9.849095E-1,-9.8555607E-1,2.0364176E-1,1.0451813E-2,1.5586287E-2,-8.09017E-1,-3.0437881E-2,-3.8370981E-3,-2.6916558E-2,-8.742592E-3,-1.273371E-2,4.3176715E-3,1.8215489E-2,-9.073125E-3,4.9740206E-3,2.84857E-2,6.5514194E-3,5.1961623E-2,-5.645146E-3,4.542707E-3,-2.3305195E-3,5.5906223E-3],"split_indices":[0,2,2,0,0,2,7,5,0,0,0,3,6,2,6,6,2,6,0,0,4,0,2,0,3,3,0,0,3,0,0,0,0,0,0,0,0,0,0,0,0,0,0,0,0],"split_type":[0,0,0,0,0,0,0,0,0,0,0,0,0,0,0,0,0,0,0,0,0,0,0,0,0,0,0,0,0,0,0,0,0,0,0,0,0,0,0,0,0,0,0,0,0],"sum_hessian":[3.467952E2,8.523558E0,3.3827164E2,6.47725E0,2.046307E0,7.347319E1,2.6479843E2,6.994718E1,3.526006E0,2.4929049E1,2.3986938E2,1.1068557E1,5.8878628E1,5.9704037E0,1.8958645E1,1.1560444E2,1.24264946E2,6.12879E0,4.939767E0,4.5901466E1,1.29771595E1,2.2266674E0,3.743736E0,5.3577704E0,1.3600875E1,1.1156175E2,4.0426865E0,2.2368435E1,1.01896515E2,1.500907E0,4.627883E0,1.4085727E1,3.181574E1,2.9098387E0,1.0067321E1,1.6498532E0,2.0938828E0,2.6389961E0,2.7187743E0,1.2915256E0,1.2309349E1,1.0679099E2,4.7707624E0,1.253863E0,1.0064265E2],"tree_param":{"num_deleted":"0","num_feature":"9","num_nodes":"45","size_leaf_vector":"1"}},{"base_weights":[3.1792136E-9,-1.4640261E-1,4.509168E-3,-4.9223535E-2,-2.2108082E-2,-4.5880713E-2,1.0762354E-2,1.9710414E-2,-5.2066274E-2,-1.978419E-2,2.264765E-2,-4.0609688E-2,-4.497232E-2,-3.2175742E-2,-1.5874982E-2,5.9957515E-2,1.404768E-2,-5.7566273E-3,-5.050616E-2,-5.4509076E-3,2.2748057E-2,1.0453828E-2,8.947305E-2,8.463663E-3,6.880764E-2,-2.4701627E-3,-9.864159E-4,-1.5580139E-2,-3.4272305E-3,3.2257196E-2,-7.460743E-4,-4.11356E-3,5.559641E-3,2.9696597E-2,-2.4446318E-2],"categories":[],"categories_nodes":[],"categories_segments":[],"categories_sizes":[],"default_left":[0,0,0,0,0,0,0,0,0,0,0,0,0,0,0,0,0,0,0,0,0,0,0,0,0,0,0,0,0,0,0,0,0,0,0],"id":10,"left_children":[1,3,5,-1,-1,7,9,-1,11,13,15,-1,17,-1,19,21,23,25,27,-1,-1,-1,29,31,33,-1,-1,-1,-1,-1,-1,-1,-1,-1,-1],"loss_changes":[2.2962934E-1,1.265943E-3,1.0682305E-1,0E0,0E0,2.9263988E-2,1.0972968E-1,0E0,1.5205786E-2,2.7309068E-2,6.883632E-2,0E0,7.240489E-3,0E0,1.8715087E-2,2.6805744E-2,5.3781256E-2,6.072718E-6,1.0963753E-3,0E0,0E0,0E0,3.0015811E-2,3.65305E-2,8.2056254E-2,0E0,0E0,0E0,0E0,0E0,0E0,0E0,0E0,0E0,0E0],"parents":[2147483647,0,0,1,1,2,2,5,5,6,6,8,8,9,9,10,10,12,12,14,14,15,15,16,16,17,17,18,18,22,22,23,23,24,24],"right_children":[2,4,6,-1,-1,8,10,-1,12,14,16,-1,18,-1,20,22,24,26,28,-1,-1,-1,30,32,34,-1,-1,-1,-1,-1,-1,-1,-1,-1,-1],"split_conditions":[5.125E-1,-1.391731E-1,3.6578768E-1,-4.9223535E-2,-2.2108082E-2,-9.908659E-1,-9.3200785E-1,1.9710414E-2,3.1778228E-1,6.80877E-1,-6.3607824E-1,-4.0609688E-2,-9.170601E-1,-3.2175742E-2,9.973615E-1,-5.3729963E-1,2.1814885E-2,6.80877E-1,3.6152798E-1,-5.4509076E-3,2.2748057E-2,1.0453828E-2,7.647059E-1,8.045977E-1,5.1877326E-1,-2.4701627E-3,-9.864159E-4,-1.5580139E-2,-3.4272305E-3,3.2257196E-2,-7.460743E-4,-4.11356E-3,5.559641E-3,2.9696597E-2,-2.4446318E-2],"split_indices":[0,4,2,0,0,6,4,0,2,0,4,0,5,0,0,3,4,0,2,0,0,0,2,2,5,0,0,0,0,0,0,0,0,0,0],"split_type":[0,0,0,0,0,0,0,0,0,0,0,0,0,0,0,0,0,0,0,0,0,0,0,0,0,0,0,0,0,0,0,0,0,0,0],"sum_hessian":[3.4584235E2,9.393349E0,3.36449E2,6.5454736E0,2.8478749E0,3.644313E1,3.000059E2,1.4087508E0,3.5034378E1,8.3846466E1,2.1615941E2,1.3304154E0,3.3703964E1,2.4560757E0,8.139039E1,3.9372982E1,1.7678642E2,4.420223E0,2.9283741E1,8.0185715E1,1.2046739E0,2.2451847E1,1.6921135E1,1.6147496E2,1.5311466E1,1.0405444E0,3.3796787E0,2.7934479E1,1.3492626E0,1.4003184E1,2.91795E0,5.0308983E1,1.1116598E2,1.3035219E1,2.276247E0],"tree_param":{"num_deleted":"0","num_feature":"9","num_nodes":"35","size_leaf_vector":"1"}},{"base_weights":[1.1884305E-8,-8.4247686E-2,5.296461E-3,-3.8821038E-2,-4.762282E-2,-1.220492E-2,2.4529148E-2,-6.407903E-2,1.07295085E-2,-1.7592005E-2,7.10643E-2,9.262236E-2,1.752225E-2,-2.324835E-2,-2.5440052E-2,-2.2683667E-2,5.2477337E-2,-2.3554375E-2,1.4133067E-1,3.2577284E-2,1.8249463E-2,1.3572161E-2,1.19366115E-2,-1.668115E-2,4.0179626E-3,2.986065E-2,-2.4817618E-2,7.046246E-3,2.8685682E-2,7.996826E-3,4.8623767E-2,-4.880338E-3,5.1007094E-3,-2.3546278E-2,-5.081682E-3,7.4318913E-3,-4.033095E-3],"categories":[],"categories_nodes":[],"categories_segments":[],"categories_sizes":[],"default_left":[0,0,0,0,0,0,0,0,0,0,0,0,0,0,0,0,0,0,0,0,0,0,0,0,0,0,0,0,0,0,0,0,0,0,0,0,0],"id":11,"left_children":[1,3,5,-1,7,9,11,13,-1,15,17,19,21,23,-1,25,27,-1,29,-1,-1,-1,31,-1,-1,-1,33,35,-1,-1,-1,-1,-1,-1,-1,-1,-1],"loss_changes":[1.5489057E-1,2.7793616E-2,1.10229105E-1,0E0,2.0020103E-2,7.8252696E-2,7.2775215E-2,7.4604377E-3,0E0,5.8997683E-2,1.2281189E-1,6.6141784E-4,2.1540385E-2,6.827377E-3,0E0,4.2048536E-2,2.1431288E-2,0E0,1.3736263E-2,0E0,0E0,0E0,1.742966E-2,0E0,0E0,0E0,6.2075764E-2,2.7204452E-3,0E0,0E0,0E0,0E0,0E0,0E0,0E0,0E0,0E0],"parents":[2147483647,0,0,1,1,2,2,4,4,5,5,6,6,7,7,9,9,10,10,11,11,12,12,13,13,15,15,16,16,18,18,22,22,26,26,27,27],"right_children":[2,4,6,-1,8,10,12,14,-1,16,18,20,22,24,-1,26,28,-1,30,-1,-1,-1,32,-1,-1,-1,34,36,-1,-1,-1,-1,-1,-1,-1,-1,-1],"split_conditions":[5.6875E-1,4.828851E-1,8.045977E-1,-3.8821038E-2,9.772311E-1,9.238795E-1,9.2637664E-1,-6.05294E-1,1.07295085E-2,9.702957E-1,6.80877E-1,9.195402E-1,8.1135905E-1,-8.09017E-1,-2.5440052E-2,5.834348E-1,-9.772311E-1,-2.3554375E-2,6.9625E-1,3.2577284E-2,1.8249463E-2,1.3572161E-2,-3.8268343E-1,-1.668115E-2,4.0179626E-3,2.986065E-2,6.80877E-1,4.8294678E-1,2.8685682E-2,7.996826E-3,4.8623767E-2,-4.880338E-3,5.1007094E-3,-2.3546278E-2,-5.081682E-3,7.4318913E-3,-4.033095E-3],"split_indices":[0,0,2,0,6,3,7,6,0,6,0,2,2,6,0,0,3,0,0,0,0,0,4,0,0,0,0,2,0,0,0,0,0,0,0,0,0],"split_type":[0,0,0,0,0,0,0,0,0,0,0,0,0,0,0,0,0,0,0,0,0,0,0,0,0,0,0,0,0,0,0,0,0,0,0,0,0],"sum_hessian":[3.4512195E2,1.9531923E1,3.2559003E2,7.612751E0,1.1919173E1,1.70659E2,1.5493105E2,1.0148054E1,1.7711189E0,1.6102992E2,9.629067E0,1.3315166E1,1.4161588E2,4.1306443E0,6.0174103E0,1.5075168E2,1.0278255E1,3.0400994E0,6.588968E0,7.255115E0,6.0600514E0,2.256071E1,1.1905517E2,1.9187919E0,2.2118523E0,1.8036952E0,1.4894798E2,5.5729165E0,4.705339E0,1.3595613E0,5.2294064E0,1.7790781E1,1.0126438E2,1.7919224E1,1.3102875E2,2.8758538E0,2.697063E0],"tree_param":{"num_deleted":"0","num_feature":"9","num_nodes":"37","size_leaf_vector":"1"}},{"base_weights":[-6.618375E-9,-4.8123777E-2,9.178065E-3,1.30643565E-2,-6.684191E-2,4.917411E-3,8.9359984E-2,-3.0047191E-2,3.5334717E-2,-4.455575E-2,-3.268296E-2,-1.098659E-2,2.363416E-2,3.580298E-2,-1.1072069E-2,2.1769173E-2,-2.4155524E-2,-6.827795E-2,2.1072239E-2,2.924845E-2,-1.71493E-2,2.0173658E-2,3.3219315E-2,1.2966686E-4,-1.00914E-2,-4.194629E-2,-1.09865844E-1,2.86671E-2,-8.3485525E-3,3.7658647E-2,-1.481437E-2,3.017737E-2,-2.0488696E-2,1.2079322E-2,1.5512097E-2,-2.4056384E-2,1.4222105E-2,-3.7551004E-2,-1.3961726E-3,-1.46643175E-2,7.015279E-3,1.5790874E-2,-6.068602E-5,8.882563E-4,2.6025882E-2,-1.2397492E-2,-4.6809562E-3,3.5442652E-3,4.946419E-3],"categories":[],"categories_nodes":[],"categories_segments":[],"categories_sizes":[],"default_left":[0,0,0,0,0,0,0,0,0,0,0,0,0,0,0,0,0,0,0,0,0,0,0,0,0,0,0,0,0,0,0,0,0,0,0,0,0,0,0,0,0,0,0,0,0,0,0,0,0],"id":12,"left_children":[1,3,5,7,9,11,13,-1,15,17,-1,19,21,-1,-1,-1,23,25,27,29,31,33,-1,-1,-1,35,37,-1,39,41,-1,43,45,-1,47,-1,-1,-1,-1,-1,-1,-1,-1,-1,-1,-1,-1,-1,-1],"loss_changes":[1.5303038E-1,6.443256E-2,9.896605E-2,3.842667E-2,3.5171196E-2,8.2819656E-2,5.9766978E-2,0E0,2.899708E-2,4.7498126E-2,0E0,3.7850305E-2,3.6262967E-2,0E0,0E0,0E0,1.2934292E-3,1.9446254E-2,1.9685285E-2,1.5334275E-2,2.1361314E-2,1.0995004E-2,0E0,0E0,0E0,5.5288237E-2,1.21354535E-2,0E0,1.0272744E-2,1.0770587E-2,0E0,1.3685993E-2,1.1895891E-2,0E0,1.7451681E-4,0E0,0E0,0E0,0E0,0E0,0E0,0E0,0E0,0E0,0E0,0E0,0E0,0E0,0E0],"parents":[2147483647,0,0,1,1,2,2,3,3,4,4,5,5,6,6,8,8,9,9,11,11,12,12,16,16,17,17,18,18,19,19,20,20,21,21,25,25,26,26,28,28,29,29,31,31,32,32,34,34],"right_children":[2,4,6,8,10,12,14,-1,16,18,-1,20,22,-1,-1,-1,24,26,28,30,32,34,-1,-1,-1,36,38,-1,40,42,-1,44,46,-1,48,-1,-1,-1,-1,-1,-1,-1,-1,-1,-1,-1,-1,-1,-1],"split_conditions":[6.80877E-1,-9.896514E-1,1.8223552E-1,3.576741E-1,8.5264015E-1,1E0,7.5095785E-1,-3.0047191E-2,-2.923717E-1,5.112931E-1,-3.268296E-2,1E0,-7.163019E-1,3.580298E-2,-1.1072069E-2,2.1769173E-2,5.237515E-1,6.5525675E-1,-8.433914E-1,1.391731E-1,9.0633243E-1,8.1135905E-1,3.3219315E-2,1.2966686E-4,-1.00914E-2,5.6875E-1,3.2143947E-1,2.86671E-2,-5.6280494E-1,8.433914E-1,-1.481437E-2,7.689487E-1,9.7066015E-1,1.2079322E-2,9.469301E-1,-2.4056384E-2,1.4222105E-2,-3.7551004E-2,-1.3961726E-3,-1.46643175E-2,7.015279E-3,1.5790874E-2,-6.068602E-5,8.882563E-4,2.6025882E-2,-1.2397492E-2,-4.6809562E-3,3.5442652E-3,4.946419E-3],"split_indices":[0,3,6,2,6,0,2,0,5,6,0,7,5,0,0,0,0,0,5,5,0,2,0,0,0,0,6,0,5,3,0,0,0,0,3,0,0,0,0,0,0,0,0,0,0,0,0,0,0],"split_type":[0,0,0,0,0,0,0,0,0,0,0,0,0,0,0,0,0,0,0,0,0,0,0,0,0,0,0,0,0,0,0,0,0,0,0,0,0,0,0,0,0,0,0,0,0,0,0,0,0],"sum_hessian":[3.4447076E2,5.449443E1,2.8997632E2,1.2836137E1,4.1658295E1,2.76353E2,1.3623332E1,1.5349871E0,1.1301149E1,2.858515E1,1.3073146E1,1.4962587E2,1.2672713E2,1.1053425E1,2.5699077E0,6.8159466E0,4.4852033E0,2.096622E1,7.618928E0,1.9376265E1,1.302496E2,1.23069016E2,3.6581101E0,1.5139637E0,2.9712393E0,1.4067748E1,6.898474E0,1.5207914E0,6.0981364E0,1.7974756E1,1.4015087E0,8.055038E0,1.22194565E2,2.1739023E1,1.01329994E2,9.923316E0,4.1444316E0,5.8568416E0,1.0416324E0,2.44049E0,3.6576464E0,1.2600003E1,5.374753E0,6.1492057E0,1.9058323E0,2.1792543E1,1.0040202E2,2.389569E1,7.74343E1],"tree_param":{"num_deleted":"0","num_feature":"9","num_nodes":"49","size_leaf_vector":"1"}},{"base_weights":[-1.1408556E-8,-7.726306E-2,4.8388084E-3,-9.4277196E-2,-2.1558123E-2,-3.1279504E-2,1.1529408E-2,-3.334055E-2,-1.203679E-2,8.655592E-3,-1.8797707E-2,-4.3708414E-2,3.431502E-2,-1.4819655E-2,2.2337623E-2,-3.8311312E-3,7.88732E-3,-6.980449E-2,-3.0591955E-2,-1.723798E-2,2.261865E-2,1.0104668E-1,1.9576823E-2,-2.3609618E-2,-6.762334E-3,1.1345301E-2,-1.290615E-2,-4.741244E-3,-6.427905E-3,3.46007E-2,9.932526E-3,7.379057E-2,1.627615E-2,9.6923625E-3,9.0454944E-4,4.2923857E-3,2.4186468E-2,-7.4582933E-3,5.7252506E-3],"categories":[],"categories_nodes":[],"categories_segments":[],"categories_sizes":[],"default_left":[0,0,0,0,0,0,0,0,0,0,0,0,0,0,0,0,0,0,0,0,0,0,0,0,0,0,0,0,0,0,0,0,0,0,0,0,0,0,0],"id":13,"left_children":[1,3,5,7,9,11,13,-1,-1,15,-1,17,-1,19,21,-1,-1,23,25,27,-1,29,31,-1,-1,33,-1,-1,-1,-1,-1,35,37,-1,-1,-1,-1,-1,-1],"loss_changes":[1.292358E-1,1.7276652E-2,7.897156E-2,9.517983E-3,8.071671E-3,9.753275E-2,7.8702405E-2,0E0,0E0,1.9881343E-3,0E0,1.4231533E-2,0E0,1.8894779E-2,4.05137E-2,0E0,0E0,4.6216846E-3,1.8002152E-2,1.379475E-4,0E0,2.3809448E-3,3.2826327E-2,0E0,0E0,1.382166E-3,0E0,0E0,0E0,0E0,0E0,3.1656884E-3,2.1328017E-2,0E0,0E0,0E0,0E0,0E0,0E0],"parents":[2147483647,0,0,1,1,2,2,3,3,4,4,5,5,6,6,9,9,11,11,13,13,14,14,17,17,18,18,19,19,21,21,22,22,25,25,31,31,32,32],"right_children":[2,4,6,8,10,12,14,-1,-1,16,-1,18,-1,20,22,-1,-1,24,26,28,-1,30,32,-1,-1,34,-1,-1,-1,-1,-1,36,38,-1,-1,-1,-1,-1,-1],"split_conditions":[5.6875E-1,9.0613025E-1,4.8158255E-1,3.9874908E-1,-1.3485093E-1,9.4832367E-1,-9.7904545E-1,-3.334055E-2,-1.203679E-2,9.5740366E-1,-1.8797707E-2,6.80877E-1,3.431502E-2,9.973615E-1,5.9317905E-1,-3.8311312E-3,7.88732E-3,9.3819135E-1,7.689487E-1,-9.9785894E-1,2.261865E-2,8.075181E-1,-8.433914E-1,-2.3609618E-2,-6.762334E-3,6.9625E-1,-1.290615E-2,-4.741244E-3,-6.427905E-3,3.46007E-2,9.932526E-3,-1.2186934E-1,6.80877E-1,9.6923625E-3,9.0454944E-4,4.2923857E-3,2.4186468E-2,-7.4582933E-3,5.7252506E-3],"split_indices":[0,2,2,5,4,6,4,0,0,2,0,0,0,0,0,0,0,6,0,4,0,2,4,0,0,0,0,0,0,0,0,3,0,0,0,0,0,0,0],"split_type":[0,0,0,0,0,0,0,0,0,0,0,0,0,0,0,0,0,0,0,0,0,0,0,0,0,0,0,0,0,0,0,0,0,0,0,0,0,0,0],"sum_hessian":[3.436779E2,1.9373144E1,3.2430475E2,1.4309964E1,5.063179E0,5.011116E1,2.7419357E2,1.0110459E1,4.1995053E0,3.3730326E0,1.6901467E0,4.6816414E1,3.2947478E0,7.964877E1,1.945448E2,1.6474036E0,1.7256289E0,1.4214271E1,3.2602142E1,7.835724E1,1.2915366E0,5.3862047E0,1.891586E2,1.1403246E1,2.8110251E0,7.4730864E0,2.5129055E1,6.1929733E1,1.6427505E1,3.873801E0,1.512404E0,9.629954E0,1.7952864E2,1.306608E0,6.1664786E0,1.3107564E0,8.319198E0,1.0969743E1,1.685589E2],"tree_param":{"num_deleted":"0","num_feature":"9","num_nodes":"39","size_leaf_vector":"1"}},{"base_weights":[-9.911945E-9,-7.403984E-2,4.5907586E-3,-9.7044975E-2,-4.2765297E-2,-7.0754136E-3,2.2409923E-2,-1.2276822E-1,-4.7921892E-2,-2.315973E-3,-6.0363077E-2,9.7801134E-2,-1.0714959E-2,5.1974826E-2,1.4204522E-2,-1.3265995E-2,-4.0638126E-2,-1.4380266E-2,-2.1882303E-2,3.105235E-3,-4.4766357E-3,-6.8037994E-2,-4.87883E-3,4.06897E-2,1.17787095E-2,-3.888634E-2,-5.423116E-3,3.17792E-2,1.2486257E-2,3.1596574E-3,4.5554717E-3,-6.068E-3,-2.4981904E-4,-6.64396E-3,-2.3011241E-2,3.7868668E-3,-4.154299E-2,-1.1784472E-2,2.450597E-2,-2.92344E-2,-1.0656424E-2,-2.478701E-2,-1.9237197E-3,7.593195E-4,1.4329313E-2],"categories":[],"categories_nodes":[],"categories_segments":[],"categories_sizes":[],"default_left":[0,0,0,0,0,0,0,0,0,0,0,0,0,0,0,0,0,0,0,0,0,0,0,0,0,0,0,0,0,0,0,0,0,0,0,0,0,0,0,0,0,0,0,0,0],"id":14,"left_children":[1,3,5,7,9,11,13,15,17,19,21,23,25,27,29,-1,-1,31,-1,-1,-1,33,-1,-1,-1,35,37,-1,-1,-1,-1,-1,-1,-1,-1,-1,39,41,43,-1,-1,-1,-1,-1,-1],"loss_changes":[1.1727668E-1,1.0343239E-2,6.76969E-2,7.787429E-3,7.2101466E-3,7.628284E-2,3.050404E-2,4.505664E-4,3.4478372E-3,8.203561E-4,1.3153609E-3,9.533398E-3,2.832182E-2,1.10110715E-2,2.079606E-4,0E0,0E0,2.6313512E-4,0E0,0E0,0E0,6.002113E-4,0E0,0E0,0E0,4.6439916E-3,3.1186925E-2,0E0,0E0,0E0,0E0,0E0,0E0,0E0,0E0,0E0,6.254267E-3,5.066073E-2,1.4584707E-2,0E0,0E0,0E0,0E0,0E0,0E0],"parents":[2147483647,0,0,1,1,2,2,3,3,4,4,5,5,6,6,7,7,8,8,9,9,10,10,11,11,12,12,13,13,14,14,17,17,21,21,25,25,26,26,36,36,37,37,38,38],"right_children":[2,4,6,8,10,12,14,16,18,20,22,24,26,28,30,-1,-1,32,-1,-1,-1,34,-1,-1,-1,36,38,-1,-1,-1,-1,-1,-1,-1,-1,-1,40,42,44,-1,-1,-1,-1,-1,-1],"split_conditions":[5.6875E-1,7.647059E-1,1E0,-3.8671097E-1,-9.624552E-1,5.9317905E-1,1E0,-9.958049E-1,4.0927693E-1,-1.90809E-1,1.5212339E-1,5.402456E-1,3.4379265E-1,7.667343E-1,9.469301E-1,-1.3265995E-2,-4.0638126E-2,3.6152798E-1,-2.1882303E-2,3.105235E-3,-4.4766357E-3,7.7899045E-1,-4.87883E-3,4.06897E-2,1.17787095E-2,-9.908659E-1,-3.8268343E-1,3.17792E-2,1.2486257E-2,3.1596574E-3,4.5554717E-3,-6.068E-3,-2.4981904E-4,-6.64396E-3,-2.3011241E-2,3.7868668E-3,3.1778228E-1,6.80877E-1,6.80877E-1,-2.92344E-2,-1.0656424E-2,-2.478701E-2,-1.9237197E-3,7.593195E-4,1.4329313E-2],"split_indices":[0,2,0,3,3,0,2,3,2,5,4,2,2,2,3,0,0,2,0,0,0,2,0,0,0,6,4,0,0,0,0,0,0,0,0,0,2,0,0,0,0,0,0,0,0],"split_type":[0,0,0,0,0,0,0,0,0,0,0,0,0,0,0,0,0,0,0,0,0,0,0,0,0,0,0,0,0,0,0,0,0,0,0,0,0,0,0,0,0,0,0,0,0],"sum_hessian":[3.4303314E2,1.9144413E1,3.2388873E2,9.818819E0,9.325594E0,1.9610326E2,1.27785484E2,5.460328E0,4.358491E0,3.1702445E0,6.1553497E0,5.7094307E0,1.9039383E2,2.6601898E1,1.0118358E2,1.3833314E0,4.076997E0,2.5348887E0,1.8236026E0,1.670561E0,1.4996834E0,4.780571E0,1.3747787E0,2.6681502E0,3.0412805E0,2.9104782E1,1.6128905E2,2.796752E0,2.3805147E1,2.379499E1,7.738859E1,1.4263408E0,1.1085478E0,1.3241377E0,3.4564335E0,1.243495E0,2.7861286E1,1.3351665E2,2.777239E1,1.2327901E0,2.6628496E1,8.397871E0,1.2511878E2,1.4850362E1,1.2922029E1],"tree_param":{"num_deleted":"0","num_feature":"9","num_nodes":"45","size_leaf_vector":"1"}},{"base_weights":[-1.5869636E-8,-6.999642E-2,4.338245E-3,-8.439984E-2,-3.2626905E-2,-6.71655E-3,2.1251863E-2,-9.6203156E-2,-2.2267802E-2,-1.7998872E-2,-8.055338E-3,8.2212865E-2,-1.0464086E-2,4.7838666E-2,1.3904889E-2,-1.0529139E-1,-5.5303983E-3,-8.153375E-3,-1.6268454E-3,4.023659E-3,-6.743491E-3,3.8258348E-2,1.01118935E-2,-3.942001E-2,-5.6617795E-3,1.1738462E-2,2.5357911E-2,3.1521507E-3,4.4396524E-3,-4.4408347E-2,-3.7990503E-2,-2.4590842E-2,-3.2203183E-2,8.632476E-3,-4.3854713E-3,-1.6526259E-3,-1.6625097E-2,2.1010055E-3,-1.0523526E-2,-8.392783E-3,9.986864E-3],"categories":[],"categories_nodes":[],"categories_segments":[],"categories_sizes":[],"default_left":[0,0,0,0,0,0,0,0,0,0,0,0,0,0,0,0,0,0,0,0,0,0,0,0,0,0,0,0,0,0,0,0,0,0,0,0,0,0,0,0,0],"id":15,"left_children":[1,3,5,7,9,11,13,15,17,-1,19,21,23,25,27,29,-1,-1,-1,-1,-1,-1,-1,31,33,-1,-1,-1,-1,35,-1,-1,37,39,-1,-1,-1,-1,-1,-1,-1],"loss_changes":[1.046438E-1,8.071341E-3,6.0815487E-2,8.041456E-3,4.3757875E-3,6.6511825E-2,2.4434961E-2,6.093815E-3,1.4359877E-4,0E0,1.8379495E-3,1.3459031E-2,2.6185568E-2,5.4524615E-3,1.5459023E-4,7.3274374E-3,0E0,0E0,0E0,0E0,0E0,0E0,0E0,5.604867E-3,2.1130979E-2,0E0,0E0,0E0,0E0,1.4620665E-3,0E0,0E0,3.019059E-3,5.854715E-2,0E0,0E0,0E0,0E0,0E0,0E0,0E0],"parents":[2147483647,0,0,1,1,2,2,3,3,4,4,5,5,6,6,7,7,8,8,10,10,11,11,12,12,13,13,14,14,15,15,23,23,24,24,29,29,32,32,33,33],"right_children":[2,4,6,8,10,12,14,16,18,-1,20,22,24,26,28,30,-1,-1,-1,-1,-1,-1,-1,32,34,-1,-1,-1,-1,36,-1,-1,38,40,-1,-1,-1,-1,-1,-1,-1],"split_conditions":[5.6875E-1,8.448276E-1,1E0,9.5371693E-1,1.5212339E-1,6.4914423E-1,1E0,9.713421E-1,3.9874908E-1,-1.7998872E-2,-2.923717E-1,5.402456E-1,3.4077078E-1,-7.163019E-1,9.469301E-1,-3.8671097E-1,-5.5303983E-3,-8.153375E-3,-1.6268454E-3,4.023659E-3,-6.743491E-3,3.8258348E-2,1.01118935E-2,5E-1,9.849095E-1,1.1738462E-2,2.5357911E-2,3.1521507E-3,4.4396524E-3,-1.3485093E-1,-3.7990503E-2,-2.4590842E-2,3.1778228E-1,6.80877E-1,-4.3854713E-3,-1.6526259E-3,-1.6625097E-2,2.1010055E-3,-1.0523526E-2,-8.392783E-3,9.986864E-3],"split_indices":[0,2,0,3,6,0,2,5,5,0,5,2,2,5,3,5,0,0,0,0,0,0,0,3,0,0,0,0,0,6,0,0,2,0,0,0,0,0,0,0,0],"split_type":[0,0,0,0,0,0,0,0,0,0,0,0,0,0,0,0,0,0,0,0,0,0,0,0,0,0,0,0,0,0,0,0,0,0,0,0,0,0,0,0,0],"sum_hessian":[3.4260547E2,1.9111593E1,3.2349387E2,1.288628E1,6.225313E0,1.9599428E2,1.27499596E2,1.0368243E1,2.5180366E0,2.262976E0,3.9623373E0,7.078679E0,1.889156E2,2.6411577E1,1.0108802E2,8.966488E0,1.4017558E0,1.4747509E0,1.0432856E0,1.6204684E0,2.3418689E0,2.817489E0,4.26119E0,2.5848894E1,1.6306671E2,2.301406E1,3.3975167E0,2.3713118E1,7.73749E1,3.1270785E0,5.8394094E0,2.246387E0,2.3602507E1,6.2829212E1,1.00237495E2,1.0207189E0,2.1063597E0,1.5145429E0,2.2087965E1,2.5232239E1,3.7596973E1],"tree_param":{"num_deleted":"0","num_feature":"9","num_nodes":"41","size_leaf_vector":"1"}},{"base_weights":[3.934771E-10,-1.2008596E-2,2.0153852E-2,-6.260492E-2,-7.1517513E-3,4.4540823E-2,1.34098865E-2,-8.295552E-2,-3.8102657E-2,5.2564446E-2,-9.930268E-3,2.3991434E-2,1.1254875E-2,3.0222822E-3,4.287688E-3,-3.310552E-2,-4.218458E-2,-1.9596096E-2,-2.1559987E-2,2.8994873E-2,2.648833E-2,-1.3512307E-2,2.7900536E-2,-1.1545684E-3,-5.3857885E-2,4.108019E-3,-1.8520443E-2,5.673547E-3,1.2313543E-2,-4.6320375E-2,-8.829734E-3,-1.8503115E-3,5.1057205E-2,-5.685699E-3,-1.8894194E-2,6.246221E-3,-2.2184032E-3,-3.7227134E-4,3.0853315E-3,-5.0431034E-3,-3.4071755E-2,8.475241E-3,-4.3379865E-3,-1.6710034E-2,5.6692422E-3,6.036949E-3,1.8839942E-2],"categories":[],"categories_nodes":[],"categories_segments":[],"categories_sizes":[],"default_left":[0,0,0,0,0,0,0,0,0,0,0,0,0,0,0,0,0,0,0,0,0,0,0,0,0,0,0,0,0,0,0,0,0,0,0,0,0,0,0,0,0,0,0,0,0,0,0],"id":16,"left_children":[1,3,5,7,9,11,13,15,17,19,21,-1,-1,-1,-1,-1,23,-1,25,-1,27,29,31,-1,33,35,-1,37,-1,39,41,43,45,-1,-1,-1,-1,-1,-1,-1,-1,-1,-1,-1,-1,-1,-1],"loss_changes":[8.330337E-2,5.2554533E-2,2.0539E-2,6.1944574E-3,3.3361986E-2,3.821671E-3,1.5654974E-4,5.844027E-3,3.2572504E-3,7.7384356E-3,2.611946E-2,0E0,0E0,0E0,0E0,0E0,2.2077262E-3,0E0,8.438918E-3,0E0,1.8900996E-3,2.6353873E-2,1.1639215E-2,0E0,9.919051E-5,1.2652775E-3,0E0,1.4168822E-4,0E0,4.08056E-2,3.2493517E-2,1.03253E-2,2.1718554E-3,0E0,0E0,0E0,0E0,0E0,0E0,0E0,0E0,0E0,0E0,0E0,0E0,0E0,0E0],"parents":[2147483647,0,0,1,1,2,2,3,3,4,4,5,5,6,6,7,7,8,8,9,9,10,10,16,16,18,18,20,20,21,21,22,22,24,24,25,25,27,27,29,29,30,30,31,31,32,32],"right_children":[2,4,6,8,10,12,14,16,18,20,22,-1,-1,-1,-1,-1,24,-1,26,-1,28,30,32,-1,34,36,-1,38,-1,40,42,44,46,-1,-1,-1,-1,-1,-1,-1,-1,-1,-1,-1,-1,-1,-1],"split_conditions":[1E0,5.6875E-1,1E0,7.647059E-1,6.4914423E-1,7.667343E-1,9.469301E-1,-3.8671097E-1,4.828851E-1,4.897681E-1,2.1814885E-2,2.3991434E-2,1.1254875E-2,3.0222822E-3,4.287688E-3,-3.310552E-2,3.5879946E-1,-1.9596096E-2,5.237515E-1,2.8994873E-2,-5.591929E-1,6.80877E-1,-4.1469324E-1,-1.1545684E-3,4.0927693E-1,-9.896514E-1,-1.8520443E-2,5.402456E-1,1.2313543E-2,-7.7162457E-1,1E0,6.80877E-1,3.424284E-1,-5.685699E-3,-1.8894194E-2,6.246221E-3,-2.2184032E-3,-3.7227134E-4,3.0853315E-3,-5.0431034E-3,-3.4071755E-2,8.475241E-3,-4.3379865E-3,-1.6710034E-2,5.6692422E-3,6.036949E-3,1.8839942E-2],"split_indices":[0,0,2,2,0,2,3,3,0,2,4,0,0,0,0,0,2,0,0,0,5,0,6,0,2,3,0,2,0,3,7,0,2,0,0,0,0,0,0,0,0,0,0,0,0,0,0],"split_type":[0,0,0,0,0,0,0,0,0,0,0,0,0,0,0,0,0,0,0,0,0,0,0,0,0,0,0,0,0,0,0,0,0,0,0,0,0,0,0,0,0,0,0,0,0,0,0],"sum_hessian":[3.422011E2,2.1468562E2,1.2751547E2,1.7761778E1,1.9692384E2,2.6409842E1,1.0110563E2,8.399697E0,9.362081E0,7.958596E0,1.8896526E2,2.6515265E0,2.3758314E1,2.3748798E1,7.7356834E1,4.003142E0,4.396555E0,2.4244826E0,6.9375978E0,1.9520154E0,6.006581E0,1.7320776E2,1.5757488E1,1.3366346E0,3.0599203E0,4.780833E0,2.1567652E0,3.0438833E0,2.9626975E0,2.0522991E1,1.5268477E2,7.299479E0,8.45801E0,1.2716819E0,1.7882383E0,1.6187758E0,3.162057E0,1.5101504E0,1.5337329E0,1.5132748E1,5.390243E0,1.9597597E1,1.3308717E2,1.561655E0,5.737824E0,3.0739248E0,5.3840847E0],"tree_param":{"num_deleted":"0","num_feature":"9","num_nodes":"47","size_leaf_vector":"1"}},{"base_weights":[1.3760978E-8,-1.1516796E-2,1.9333182E-2,-5.824359E-2,-7.055071E-3,4.2297505E-2,1.2983367E-2,-4.2898253E-2,-8.704504E-2,5.443582E-2,-9.519647E-3,1.0574052E-2,2.1354098E-2,2.940791E-3,4.1452446E-3,-6.907591E-2,-8.075278E-3,-9.9602295E-3,-3.0467466E-2,2.7360355E-2,2.060823E-2,-1.2487648E-2,3.970607E-2,-7.6393284E-2,-4.8082545E-3,4.5447135E-3,-5.262196E-3,5.8814394E-4,9.477461E-3,-5.1512077E-2,-7.206492E-3,3.0721903E-2,1.744702E-2,-9.854156E-3,-2.8033124E-2,-7.2900187E-3,-2.8337846E-2,6.7079635E-3,-3.868889E-3,1.0370663E-2,4.5860335E-3],"categories":[],"categories_nodes":[],"categories_segments":[],"categories_sizes":[],"default_left":[0,0,0,0,0,0,0,0,0,0,0,0,0,0,0,0,0,0,0,0,0,0,0,0,0,0,0,0,0,0,0,0,0,0,0,0,0,0,0,0,0],"id":17,"left_children":[1,3,5,7,9,11,13,15,17,19,21,-1,-1,-1,-1,23,25,-1,-1,-1,27,29,31,33,-1,-1,-1,-1,-1,35,37,39,-1,-1,-1,-1,-1,-1,-1,-1,-1],"loss_changes":[7.6532364E-2,4.4497408E-2,1.8162053E-2,4.503116E-3,3.0489828E-2,3.0612461E-3,1.350753E-4,1.2323672E-2,9.31371E-4,7.7839512E-3,2.8401107E-2,0E0,0E0,0E0,0E0,1.8555485E-3,1.8477018E-3,0E0,0E0,0E0,1.0314889E-3,3.691082E-2,5.336106E-5,1.9105375E-3,0E0,0E0,0E0,0E0,0E0,2.2714641E-2,2.7288444E-2,4.0704384E-5,0E0,0E0,0E0,0E0,0E0,0E0,0E0,0E0,0E0],"parents":[2147483647,0,0,1,1,2,2,3,3,4,4,5,5,6,6,7,7,8,8,9,9,10,10,15,15,16,16,20,20,21,21,22,22,23,23,29,29,30,30,31,31],"right_children":[2,4,6,8,10,12,14,16,18,20,22,-1,-1,-1,-1,24,26,-1,-1,-1,28,30,32,34,-1,-1,-1,-1,-1,36,38,40,-1,-1,-1,-1,-1,-1,-1,-1,-1],"split_conditions":[1E0,5.6875E-1,1E0,5.237515E-1,5.9317905E-1,-7.163019E-1,9.469301E-1,4.828851E-1,-6.05294E-1,5.26603E-1,9.702957E-1,1.0574052E-2,2.1354098E-2,2.940791E-3,4.1452446E-3,9.5371693E-1,-9.896514E-1,-9.9602295E-3,-3.0467466E-2,2.7360355E-2,7.647059E-1,6.80877E-1,6.80877E-1,-3.8671097E-1,-4.8082545E-3,4.5447135E-3,-5.262196E-3,5.8814394E-4,9.477461E-3,-7.7162457E-1,9.0633243E-1,4.8294678E-1,1.744702E-2,-9.854156E-3,-2.8033124E-2,-7.2900187E-3,-2.8337846E-2,6.7079635E-3,-3.868889E-3,1.0370663E-2,4.5860335E-3],"split_indices":[0,0,2,0,0,5,3,0,6,2,6,0,0,0,0,3,3,0,0,0,2,0,0,5,0,0,0,0,0,3,0,2,0,0,0,0,0,0,0,0,0],"split_type":[0,0,0,0,0,0,0,0,0,0,0,0,0,0,0,0,0,0,0,0,0,0,0,0,0,0,0,0,0,0,0,0,0,0,0,0,0,0,0,0,0],"sum_hessian":[3.41724E2,2.1440613E2,1.2731789E2,1.7637533E1,1.9676859E2,2.6352385E1,1.009655E2,1.313088E1,4.506653E0,6.77002E0,1.8999857E2,2.2966343E1,3.3860402E0,2.3625723E1,7.733978E1,6.93441E0,6.1964707E0,1.6548272E0,2.8518255E0,2.4314024E0,4.338618E0,1.7989816E2,1.01004095E1,5.7071157E0,1.2272943E0,1.6203344E0,4.576136E0,2.0450218E0,2.293596E0,2.040012E1,1.5949803E2,8.585139E0,1.5152704E0,2.4292893E0,3.2778263E0,1.344623E1,6.9538903E0,2.5267706E1,1.3423033E2,5.880011E0,2.7051277E0],"tree_param":{"num_deleted":"0","num_feature":"9","num_nodes":"41","size_leaf_vector":"1"}},{"base_weights":[-6.6276296E-9,-6.39589E-2,3.675043E-3,-3.966227E-2,-3.3446617E-2,-3.5782948E-2,7.2012264E-3,-5.8477417E-2,-2.6972503E-3,-2.1248868E-2,-3.0159889E-2,-1.2972754E-2,1.4591992E-2,-3.298193E-2,-6.951082E-2,-3.996504E-3,4.5771278E-3,2.7108655E-4,-9.747169E-3,-1.4346593E-2,1.2434673E-2,8.119674E-2,1.2705418E-2,-1.5654864E-2,2.2739589E-3,-2.2942359E-2,-6.4929975E-3,-1.2825438E-2,-4.0179724E-3,3.7623227E-2,-6.1768567E-4,-1.2284052E-2,1.6353166E-2,2.351886E-3,-1.4741329E-2,4.135603E-3,1.8825648E-2],"categories":[],"categories_nodes":[],"categories_segments":[],"categories_sizes":[],"default_left":[0,0,0,0,0,0,0,0,0,0,0,0,0,0,0,0,0,0,0,0,0,0,0,0,0,0,0,0,0,0,0,0,0,0,0,0,0],"id":18,"left_children":[1,3,5,7,-1,9,11,13,15,-1,17,19,21,23,25,-1,-1,-1,-1,27,-1,29,31,-1,-1,-1,-1,-1,-1,-1,-1,33,35,-1,-1,-1,-1],"loss_changes":[8.072869E-2,1.7129458E-2,4.544743E-2,9.510828E-3,0E0,3.1474754E-3,4.476707E-2,2.8527156E-4,1.2976989E-3,0E0,1.8281769E-3,6.627729E-3,2.6522517E-2,4.03333E-3,1.7591566E-4,0E0,0E0,0E0,0E0,1.5788637E-3,0E0,2.1809496E-2,1.9747298E-2,0E0,0E0,0E0,0E0,0E0,0E0,0E0,0E0,2.106538E-2,2.1479905E-2,0E0,0E0,0E0,0E0],"parents":[2147483647,0,0,1,1,2,2,3,3,5,5,6,6,7,7,8,8,10,10,11,11,12,12,13,13,14,14,19,19,21,21,22,22,31,31,32,32],"right_children":[2,4,6,8,-1,10,12,14,16,-1,18,20,22,24,26,-1,-1,-1,-1,28,-1,30,32,-1,-1,-1,-1,-1,-1,-1,-1,34,36,-1,-1,-1,-1],"split_conditions":[5.6875E-1,5.237515E-1,3.4077078E-1,5.125E-1,-3.3446617E-2,1.7794354E-1,-9.7904545E-1,4.2663962E-1,9.563047E-1,-2.1248868E-2,1E0,9.973615E-1,5.875E-1,6.2592345E-1,4.828851E-1,-3.996504E-3,4.5771278E-3,2.7108655E-4,-9.747169E-3,6.80877E-1,1.2434673E-2,5.26603E-1,6.80877E-1,-1.5654864E-2,2.2739589E-3,-2.2942359E-2,-6.4929975E-3,-1.2825438E-2,-4.0179724E-3,3.7623227E-2,-6.1768567E-4,-8.746197E-1,-3.4611705E-1,2.351886E-3,-1.4741329E-2,4.135603E-3,1.8825648E-2],"split_indices":[0,0,2,0,0,3,4,2,6,0,7,0,0,3,0,0,0,0,0,0,0,2,0,0,0,0,0,0,0,0,0,3,5,0,0,0,0],"split_type":[0,0,0,0,0,0,0,0,0,0,0,0,0,0,0,0,0,0,0,0,0,0,0,0,0,0,0,0,0,0,0,0,0,0,0,0,0],"sum_hessian":[3.414502E2,1.7662176E1,3.2378802E2,1.2901546E1,4.7606306E0,2.5811342E1,2.9797668E2,8.164076E0,4.7374697E0,1.9654012E0,2.3845942E1,7.969215E1,2.1828455E2,3.6708713E0,4.4932046E0,3.1383717E0,1.5990977E0,1.707009E0,2.2138933E1,7.844816E1,1.2439914E0,4.8546267E0,2.1342992E2,2.2970169E0,1.3738544E0,3.400827E0,1.0923774E0,1.1237286E0,7.7324425E1,2.8400495E0,2.0145772E0,2.6884668E1,1.8654524E2,1.7898573E1,8.986095E0,1.7799188E2,8.553358E0],"tree_param":{"num_deleted":"0","num_feature":"9","num_nodes":"37","size_leaf_vector":"1"}},{"base_weights":[2.6531624E-9,-5.5708036E-2,3.7246568E-3,-3.4515645E-2,-9.012385E-2,5.2702222E-2,2.183159E-3,-2.2672651E-2,-2.9846365E-2,-1.3183087E-1,-7.917964E-3,-8.124779E-3,1.7668553E-2,-2.7025487E-2,2.0121706E-3,-5.053034E-2,-1.6222497E-2,1.9674247E-2,-9.743302E-3,3.8414147E-2,1.22128315E-2,-3.5646692E-2,-1.0854304E-2,-3.2616746E-2,-5.9477305E-3,1.8666882E-2,9.959583E-3,-9.563218E-4,3.7555092E-3,-5.3540105E-3,-1.3851646E-2,-3.9139282E-4,-8.234722E-3,-5.195382E-4,-1.09413E-2,1.4681738E-3,-3.8126737E-3],"categories":[],"categories_nodes":[],"categories_segments":[],"categories_sizes":[],"default_left":[0,0,0,0,0,0,0,0,0,0,0,0,0,0,0,0,0,0,0,0,0,0,0,0,0,0,0,0,0,0,0,0,0,0,0,0,0],"id":19,"left_children":[1,3,5,7,9,-1,11,13,-1,15,-1,17,19,21,-1,-1,-1,-1,23,25,27,29,31,33,35,-1,-1,-1,-1,-1,-1,-1,-1,-1,-1,-1,-1],"loss_changes":[7.120341E-2,1.2574717E-2,8.487406E-2,9.232968E-3,1.6655669E-2,0E0,5.1192258E-2,1.9619325E-3,0E0,3.2113194E-3,0E0,2.3625404E-2,1.4031995E-2,1.3315082E-3,0E0,0E0,0E0,0E0,1.6250784E-2,1.1891574E-3,5.241344E-4,6.0023554E-4,8.7129587E-4,3.119342E-3,1.2060469E-2,0E0,0E0,0E0,0E0,0E0,0E0,0E0,0E0,0E0,0E0,0E0,0E0],"parents":[2147483647,0,0,1,1,2,2,3,3,4,4,6,6,7,7,9,9,11,11,12,12,13,13,18,18,19,19,20,20,21,21,22,22,23,23,24,24],"right_children":[2,4,6,8,10,-1,12,14,-1,16,-1,18,20,22,-1,-1,-1,-1,24,26,28,30,32,34,36,-1,-1,-1,-1,-1,-1,-1,-1,-1,-1,-1,-1],"split_conditions":[5.834348E-1,-3.4899496E-2,5.875E-1,-1.3052619E-1,8.7155744E-2,5.2702222E-2,1E0,9.5740366E-1,-2.9846365E-2,7.647059E-1,-7.917964E-3,-9.9496853E-1,8.40382E-1,6.2592345E-1,2.0121706E-3,-5.053034E-2,-1.6222497E-2,1.9674247E-2,3.4077078E-1,7.667343E-1,-3.8268343E-1,-9.170601E-1,5.402456E-1,1E0,9.849095E-1,1.8666882E-2,9.959583E-3,-9.563218E-4,3.7555092E-3,-5.3540105E-3,-1.3851646E-2,-3.9139282E-4,-8.234722E-3,-5.195382E-4,-1.09413E-2,1.4681738E-3,-3.8126737E-3],"split_indices":[0,5,0,4,4,0,0,2,0,2,0,5,2,3,0,0,0,0,2,2,3,3,2,7,0,0,0,0,0,0,0,0,0,0,0,0,0],"split_type":[0,0,0,0,0,0,0,0,0,0,0,0,0,0,0,0,0,0,0,0,0,0,0,0,0,0,0,0,0,0,0,0,0,0,0,0,0],"sum_hessian":[3.4116025E2,2.0505894E1,3.2065436E2,1.3930649E1,6.5752444E0,1.8453723E0,3.18809E2,1.2923874E1,1.0067757E0,3.3284528E0,3.2467918E0,1.9168687E2,1.2712211E2,1.1325986E1,1.5978878E0,1.4701731E0,1.8582798E0,3.269701E0,1.8841718E2,2.5211882E1,1.01910225E2,6.601989E0,4.723997E0,2.5735098E1,1.6268208E2,2.5663316E0,2.264555E1,1.798954E0,1.0011127E2,3.4548833E0,3.1471055E0,3.683119E0,1.040878E0,3.0160644E0,2.2719034E1,6.2591675E1,1.0009041E2],"tree_param":{"num_deleted":"0","num_feature":"9","num_nodes":"37","size_leaf_vector":"1"}},{"base_weights":[2.244857E-9,-5.952731E-2,3.1311954E-3,-3.39032E-2,-3.8234953E-2,-5.8074766E-3,1.6974783E-2,-4.6908982E-2,-7.5657493E-3,5.6518514E-2,-8.833567E-3,3.5961717E-2,1.1755086E-2,-2.0641072E-2,-1.8412054E-2,2.3141017E-3,-4.62647E-3,4.5330174E-2,-1.5979129E-3,-3.1360775E-2,-5.182469E-3,1.6406436E-2,9.544627E-3,2.5732215E-3,3.7815534E-3,2.9668224E-3,-1.2810294E-2,8.299409E-3,-2.055365E-2,-3.3899046E-2,1.7453021E-3,5.9448164E-3,-3.6854546E-3,-8.77668E-3,-1.9653353E-3,-1.7118065E-2,-8.838813E-3,-3.1232897E-3,1.1734563E-2],"categories":[],"categories_nodes":[],"categories_segments":[],"categories_sizes":[],"default_left":[0,0,0,0,0,0,0,0,0,0,0,0,0,0,0,0,0,0,0,0,0,0,0,0,0,0,0,0,0,0,0,0,0,0,0,0,0,0,0],"id":20,"left_children":[1,3,5,7,-1,9,11,13,15,17,19,21,23,25,-1,-1,-1,-1,27,29,31,-1,-1,-1,-1,-1,-1,-1,33,35,-1,37,-1,-1,-1,-1,-1,-1,-1],"loss_changes":[6.3914455E-2,2.5503002E-2,4.041025E-2,4.3736342E-3,0E0,3.7974432E-2,1.2269869E-2,2.1712743E-3,8.0982014E-4,5.15579E-2,1.5494552E-2,3.6662444E-4,1.6725529E-4,3.601237E-3,0E0,0E0,0E0,0E0,4.3250746E-3,2.684014E-3,1.3113804E-2,0E0,0E0,0E0,0E0,0E0,0E0,0E0,3.7903525E-4,8.6853094E-4,0E0,3.5651296E-2,0E0,0E0,0E0,0E0,0E0,0E0,0E0],"parents":[2147483647,0,0,1,1,2,2,3,3,5,5,6,6,7,7,8,8,9,9,10,10,11,11,12,12,13,13,18,18,19,19,20,20,28,28,29,29,31,31],"right_children":[2,4,6,8,-1,10,12,14,16,18,20,22,24,26,-1,-1,-1,-1,28,30,32,-1,-1,-1,-1,-1,-1,-1,34,36,-1,38,-1,-1,-1,-1,-1,-1,-1],"split_conditions":[5.6875E-1,5.237515E-1,1E0,5.125E-1,-3.8234953E-2,5.9317905E-1,1E0,4.2837653E-1,-9.896514E-1,9.2637664E-1,3.387424E-1,7.667343E-1,9.469301E-1,1.9509032E-1,-1.8412054E-2,2.3141017E-3,-4.62647E-3,4.5330174E-2,-6.9779044E-1,9.238795E-1,9.849095E-1,1.6406436E-2,9.544627E-3,2.5732215E-3,3.7815534E-3,2.9668224E-3,-1.2810294E-2,8.299409E-3,4.9616858E-1,1.7794354E-1,1.7453021E-3,8.4352076E-1,-3.6854546E-3,-8.77668E-3,-1.9653353E-3,-1.7118065E-2,-8.838813E-3,-3.1232897E-3,1.1734563E-2],"split_indices":[0,0,0,0,0,0,2,2,3,7,2,2,3,6,0,0,0,0,4,3,0,0,0,0,0,0,0,0,2,3,0,0,0,0,0,0,0,0,0],"split_type":[0,0,0,0,0,0,0,0,0,0,0,0,0,0,0,0,0,0,0,0,0,0,0,0,0,0,0,0,0,0,0,0,0,0,0,0,0,0,0],"sum_hessian":[3.409043E2,1.6135735E1,3.2476855E2,1.2804368E1,3.3313665E0,1.976976E2,1.2707095E2,8.048725E0,4.755643E0,8.335745E0,1.8936185E2,2.6130436E1,1.0094052E2,3.7200475E0,4.3286777E0,1.6209733E0,3.1346698E0,2.5636115E0,5.772134E0,2.5351868E1,1.6400998E2,2.5271487E0,2.3603287E1,2.3644882E1,7.729564E1,1.7918559E0,1.9281915E0,2.088543E0,3.6835907E0,2.3814215E1,1.5376527E0,6.3962708E1,1.0004727E2,1.599972E0,2.0836186E0,1.9213339E0,2.1892881E1,4.3298874E1,2.0663834E1],"tree_param":{"num_deleted":"0","num_feature":"9","num_nodes":"39","size_leaf_vector":"1"}},{"base_weights":[-1.3818198E-8,-9.801831E-3,1.6421245E-2,-4.314086E-2,-6.935667E-3,3.4598686E-2,1.1406903E-2,-2.54274E-2,-6.2907375E-2,-2.9285569E-2,-3.4983896E-3,9.22755E-3,1.6054135E-2,2.4765322E-3,3.6749837E-3,-1.1744457E-3,-3.0990822E-2,-2.5308548E-2,-2.1476548E-2,4.357548E-3,-1.00733405E-2,8.089548E-3,-3.563088E-3,-2.637234E-3,-3.5993572E-2,-7.6739728E-3,-1.6041539E-3,2.5303108E-3,-7.668387E-5,-1.6544093E-3,4.0109254E-2,-2.5518285E-3,-1.2186666E-2,8.170738E-3,-2.3608676E-3,9.72566E-4,2.2677064E-2],"categories":[],"categories_nodes":[],"categories_segments":[],"categories_sizes":[],"default_left":[0,0,0,0,0,0,0,0,0,0,0,0,0,0,0,0,0,0,0,0,0,0,0,0,0,0,0,0,0,0,0,0,0,0,0,0,0],"id":21,"left_children":[1,3,5,7,9,11,13,15,17,19,21,-1,-1,-1,-1,-1,23,-1,25,27,-1,29,-1,-1,31,-1,-1,-1,-1,33,35,-1,-1,-1,-1,-1,-1],"loss_changes":[5.513202E-2,2.0196725E-2,1.1275057E-2,4.2787027E-3,1.5162592E-2,3.2900646E-4,1.694765E-4,1.1392548E-3,4.637962E-3,3.9514303E-3,1.6927088E-2,0E0,0E0,0E0,0E0,0E0,5.969368E-4,0E0,1.1585071E-4,7.4874835E-5,0E0,2.2948224E-2,0E0,0E0,4.672408E-4,0E0,0E0,0E0,0E0,1.0483018E-2,2.2189492E-2,0E0,0E0,0E0,0E0,0E0,0E0],"parents":[2147483647,0,0,1,1,2,2,3,3,4,4,5,5,6,6,7,7,8,8,9,9,10,10,16,16,18,18,19,19,21,21,24,24,29,29,30,30],"right_children":[2,4,6,8,10,12,14,16,18,20,22,-1,-1,-1,-1,-1,24,-1,26,28,-1,30,-1,-1,32,-1,-1,-1,-1,34,36,-1,-1,-1,-1,-1,-1],"split_conditions":[1E0,5.6875E-1,1E0,-3.4899496E-2,3.387424E-1,-7.518398E-1,9.469301E-1,-9.896514E-1,9.5371693E-1,1E0,9.849095E-1,9.22755E-3,1.6054135E-2,2.4765322E-3,3.6749837E-3,-1.1744457E-3,-5.409745E-1,-2.5308548E-2,3.9874908E-1,-7.7162457E-1,-1.00733405E-2,8.6674815E-1,-3.563088E-3,-2.637234E-3,-9.2050487E-1,-7.6739728E-3,-1.6041539E-3,2.5303108E-3,-7.668387E-5,6.4914423E-1,-4.1469324E-1,-2.5518285E-3,-1.2186666E-2,8.170738E-3,-2.3608676E-3,9.72566E-4,2.2677064E-2],"split_indices":[0,0,2,5,2,4,3,3,3,7,0,0,0,0,0,0,6,0,5,3,0,0,0,0,4,0,0,0,0,0,6,0,0,0,0,0,0],"split_type":[0,0,0,0,0,0,0,0,0,0,0,0,0,0,0,0,0,0,0,0,0,0,0,0,0,0,0,0,0,0,0,0,0,0,0,0,0],"sum_hessian":[3.4052386E2,2.1349326E2,1.270306E2,1.5788679E1,1.9770457E2,2.6189905E1,1.008407E2,9.532587E0,6.256092E0,2.5350471E1,1.7235411E2,2.3953037E1,2.2368677E0,2.3558168E1,7.728253E1,2.3087626E0,7.223824E0,3.4390259E0,2.8170662E0,2.86658E0,2.248389E1,7.233964E1,1.00014465E2,1.8355653E0,5.388259E0,1.7786508E0,1.0384156E0,1.0820259E0,1.7845541E0,5.6189014E1,1.615062E1,1.1855444E0,4.2027144E0,9.349072E0,4.6839943E1,8.4557905E0,7.6948295E0],"tree_param":{"num_deleted":"0","num_feature":"9","num_nodes":"37","size_leaf_vector":"1"}},{"base_weights":[-9.68802E-10,-9.534035E-3,1.5969425E-2,-4.070797E-2,-6.8563176E-3,3.3709515E-2,1.1072479E-2,-2.7610412E-2,-2.2665072E-2,7.462038E-3,-1.2181442E-2,1.5016288E-2,8.996559E-3,2.3767399E-3,3.5749944E-3,-3.7828524E-2,-6.5489495E-3,-9.225698E-3,2.292254E-2,-9.76533E-3,-8.140273E-3,-1.2949706E-2,-5.3187475E-2,-1.4948318E-2,2.8140766E-3,-4.2815562E-2,8.2672285E-3,-2.1857372E-2,2.8228203E-2,1.0722895E-2,-1.1723756E-2,-1.0854965E-2,2.945706E-3,-5.9783333E-3,-1.8402644E-2,-5.6084404E-3,-1.6557041E-3,8.160064E-3,-1.7103668E-2,2.736388E-2,-1.1982865E-3,-9.879621E-3,-4.3038605E-4,9.628485E-3,-7.3582823E-3,-2.8222104E-4,1.1411765E-2,7.7222246E-3,-3.762957E-3],"categories":[],"categories_nodes":[],"categories_segments":[],"categories_sizes":[],"default_left":[0,0,0,0,0,0,0,0,0,0,0,0,0,0,0,0,0,0,0,0,0,0,0,0,0,0,0,0,0,0,0,0,0,0,0,0,0,0,0,0,0,0,0,0,0,0,0,0,0],"id":22,"left_children":[1,3,5,7,9,11,13,15,-1,17,19,-1,-1,-1,-1,21,23,25,27,-1,29,31,33,35,-1,37,39,41,43,45,47,-1,-1,-1,-1,-1,-1,-1,-1,-1,-1,-1,-1,-1,-1,-1,-1,-1,-1],"loss_changes":[5.2111097E-2,1.761091E-2,1.0742098E-2,5.557945E-3,1.5230947E-2,1.5258417E-4,1.761876E-4,2.7113417E-3,0E0,1.4259375E-2,1.1680631E-2,0E0,0E0,0E0,0E0,2.7688956E-3,9.029897E-4,1.6158987E-2,7.4002873E-3,0E0,8.401225E-3,2.8816692E-3,2.0773895E-4,4.2310334E-5,0E0,1.0867376E-2,1.920532E-2,7.642823E-4,6.0834344E-3,6.4292755E-3,3.4959717E-3,0E0,0E0,0E0,0E0,0E0,0E0,0E0,0E0,0E0,0E0,0E0,0E0,0E0,0E0,0E0,0E0,0E0,0E0],"parents":[2147483647,0,0,1,1,2,2,3,3,4,4,5,5,6,6,7,7,9,9,10,10,15,15,16,16,17,17,18,18,20,20,21,21,22,22,23,23,25,25,26,26,27,27,28,28,29,29,30,30],"right_children":[2,4,6,8,10,12,14,16,-1,18,20,-1,-1,-1,-1,22,24,26,28,-1,30,32,34,36,-1,38,40,42,44,46,48,-1,-1,-1,-1,-1,-1,-1,-1,-1,-1,-1,-1,-1,-1,-1,-1,-1,-1],"split_conditions":[1E0,5.6875E-1,1E0,5.237515E-1,1E0,7.667343E-1,9.469301E-1,5.125E-1,-2.2665072E-2,6.80877E-1,3.4077078E-1,1.5016288E-2,8.996559E-3,2.3767399E-3,3.5749944E-3,4.2837653E-1,9.563047E-1,-4.848096E-1,-9.8555607E-1,-9.76533E-3,5.3076404E-1,-3.8671097E-1,-3.4611705E-1,8.40382E-1,2.8140766E-3,-9.692309E-1,-9.469301E-1,9.560514E-1,1.391731E-1,7.689487E-1,5.925E-1,-1.0854965E-2,2.945706E-3,-5.9783333E-3,-1.8402644E-2,-5.6084404E-3,-1.6557041E-3,8.160064E-3,-1.7103668E-2,2.736388E-2,-1.1982865E-3,-9.879621E-3,-4.3038605E-4,9.628485E-3,-7.3582823E-3,-2.8222104E-4,1.1411765E-2,7.7222246E-3,-3.762957E-3],"split_indices":[0,0,2,0,7,2,3,0,0,0,2,0,0,0,0,2,6,4,3,0,2,3,5,2,0,4,5,2,5,0,0,0,0,0,0,0,0,0,0,0,0,0,0,0,0,0,0,0,0],"split_type":[0,0,0,0,0,0,0,0,0,0,0,0,0,0,0,0,0,0,0,0,0,0,0,0,0,0,0,0,0,0,0,0,0,0,0,0,0,0,0,0,0,0,0,0,0,0,0,0,0],"sum_hessian":[3.4026636E2,2.1331592E2,1.2695043E2,1.5750174E1,1.9756573E2,2.6189693E1,1.0076074E2,1.2749826E1,3.0003476E0,5.3449043E1,1.441167E2,2.547528E0,2.3642166E1,2.3490595E1,7.727015E1,8.048797E0,4.7010293E0,2.5898273E1,2.755077E1,2.2690342E1,1.2142635E2,3.7757995E0,4.2729974E0,3.118331E0,1.5826983E0,8.372956E0,1.7525318E1,2.5880382E0,2.4962732E1,1.906698E1,1.02359375E2,1.5772202E0,2.1985793E0,1.5194564E0,2.753541E0,1.5284243E0,1.5899067E0,1.2571126E0,7.115844E0,1.4277864E0,1.609753E1,1.2809145E0,1.3071237E0,2.362292E1,1.3398125E0,1.4038379E1,5.0286016E0,1.5399512E0,1.0081942E2],"tree_param":{"num_deleted":"0","num_feature":"9","num_nodes":"49","size_leaf_vector":"1"}},{"base_weights":[1.1891327E-8,-9.175188E-3,1.53831225E-2,-4.4885874E-2,-6.1036176E-3,9.668888E-3,1.0742765E-2,-2.6884798E-2,-2.792551E-2,1.0077745E-2,-1.2139819E-2,2.2780357E-3,3.4767753E-3,-3.6243275E-2,-7.545155E-3,2.3262335E-3,3.6805194E-2,-9.431249E-3,-8.303714E-3,-1.2570001E-2,-1.5176261E-2,1.1249054E-3,-5.0351378E-3,1.2060994E-2,-5.233299E-2,-2.6640618E-2,6.161132E-2,8.670225E-3,-1.1503649E-2,-8.387047E-3,4.031825E-3,2.4755007E-2,1.9797625E-3,-1.9996123E-2,-6.2537794E-3,-2.8455694E-4,-1.247186E-2,2.1963116E-2,-4.0897974E-3,1.0649436E-3,1.0771938E-2,6.2036216E-3,-3.6588483E-3],"categories":[],"categories_nodes":[],"categories_segments":[],"categories_sizes":[],"default_left":[0,0,0,0,0,0,0,0,0,0,0,0,0,0,0,0,0,0,0,0,0,0,0,0,0,0,0,0,0,0,0,0,0,0,0,0,0,0,0,0,0,0,0],"id":23,"left_children":[1,3,5,7,9,-1,11,13,-1,15,17,-1,-1,19,21,23,25,-1,27,29,-1,-1,-1,31,33,35,37,39,41,-1,-1,-1,-1,-1,-1,-1,-1,-1,-1,-1,-1,-1,-1],"loss_changes":[4.8282422E-2,2.3229603E-2,9.644734E-3,1.2085371E-2,1.950704E-2,0E0,1.831241E-4,2.196623E-3,0E0,1.1198569E-2,1.0472793E-2,0E0,0E0,2.39796E-3,6.591235E-4,2.3664806E-2,2.08069E-2,0E0,6.7431945E-3,2.257306E-3,0E0,0E0,0E0,1.3907967E-2,1.6458761E-3,1.5415603E-3,8.9022E-3,2.6577287E-3,2.5553359E-3,0E0,0E0,0E0,0E0,0E0,0E0,0E0,0E0,0E0,0E0,0E0,0E0,0E0,0E0],"parents":[2147483647,0,0,1,1,2,2,3,3,4,4,6,6,7,7,9,9,10,10,13,13,14,14,15,15,16,16,18,18,19,19,23,23,24,24,25,25,26,26,27,27,28,28],"right_children":[2,4,6,8,10,-1,12,14,-1,16,18,-1,-1,20,22,24,26,-1,28,30,-1,-1,-1,32,34,36,38,40,42,-1,-1,-1,-1,-1,-1,-1,-1,-1,-1,-1,-1,-1,-1],"split_conditions":[1E0,5.6875E-1,1E0,5.237515E-1,1E0,9.668888E-3,9.469301E-1,5.125E-1,-2.792551E-2,7.933533E-1,3.4077078E-1,2.2780357E-3,3.4767753E-3,4.2837653E-1,-9.624552E-1,5.771452E-1,4.8158255E-1,-9.431249E-3,5.3076404E-1,6.2592345E-1,-1.5176261E-2,1.1249054E-3,-5.0351378E-3,5.834348E-1,6.589242E-1,3.4077078E-1,9.9306846E-1,8.141809E-1,5.925E-1,-8.387047E-3,4.031825E-3,2.4755007E-2,1.9797625E-3,-1.9996123E-2,-6.2537794E-3,-2.8455694E-4,-1.247186E-2,2.1963116E-2,-4.0897974E-3,1.0649436E-3,1.0771938E-2,6.2036216E-3,-3.6588483E-3],"split_indices":[0,0,2,0,7,0,3,0,0,3,2,0,0,2,3,3,2,0,2,3,0,0,0,0,0,2,3,0,0,0,0,0,0,0,0,0,0,0,0,0,0,0,0],"split_type":[0,0,0,0,0,0,0,0,0,0,0,0,0,0,0,0,0,0,0,0,0,0,0,0,0,0,0,0,0,0,0,0,0,0,0,0,0,0,0,0,0,0,0],"sum_hessian":[3.4008133E2,2.1327675E2,1.2680459E2,1.5813425E1,1.9746333E2,2.6101038E1,1.0070355E2,1.2647655E1,3.1657705E0,5.3466114E1,1.4399721E2,2.3445646E1,7.7257904E1,7.934231E0,4.713424E0,4.2288586E1,1.1177527E1,2.2684875E1,1.2131234E2,3.70158E0,4.2326508E0,2.3880305E0,2.3253937E0,3.6557137E1,5.7314525E0,3.1210265E0,8.0565E0,1.8971138E1,1.023412E2,2.2786741E0,1.4229059E0,1.6150743E0,3.4942062E1,3.1719456E0,2.5595067E0,1.5381099E0,1.5829167E0,7.003863E0,1.0526376E0,1.692043E1,2.0507073E0,1.547878E0,1.0079332E2],"tree_param":{"num_deleted":"0","num_feature":"9","num_nodes":"43","size_leaf_vector":"1"}},{"base_weights":[1.925808E-9,-8.819674E-3,1.4796916E-2,-4.0378604E-2,-6.253165E-3,3.0586084E-2,1.0451959E-2,-2.3995636E-2,-9.4091885E-2,-1.08892005E-2,1.5064245E-2,1.3368335E-2,8.202227E-3,2.2103875E-3,3.384184E-3,-1.6723668E-2,-1.6616656E-2,-3.7751548E-2,-6.580357E-3,-9.153196E-3,-2.1644073E-2,2.7999772E-2,7.079209E-3,-2.0300515E-2,1.6155445E-3,-5.33836E-3,-2.2292456E-2,-4.083577E-3,3.0566746E-2,-8.674649E-3,-2.4874792E-3,-2.8317657E-3,9.91265E-3,-2.501622E-2,-4.107835E-3,3.3170604E-3,-1.0589508E-2,1.200061E-2,-5.514387E-4],"categories":[],"categories_nodes":[],"categories_segments":[],"categories_sizes":[],"default_left":[0,0,0,0,0,0,0,0,0,0,0,0,0,0,0,0,0,0,0,0,0,0,0,0,0,0,0,0,0,0,0,0,0,0,0,0,0,0,0],"id":24,"left_children":[1,3,5,7,9,11,13,15,17,19,21,-1,-1,-1,-1,-1,23,-1,-1,25,-1,-1,27,29,-1,31,33,35,37,-1,-1,-1,-1,-1,-1,-1,-1,-1,-1],"loss_changes":[4.4624362E-2,1.7100215E-2,8.440804E-3,1.1759808E-2,1.9861637E-2,7.942319E-6,1.76684E-4,2.2479095E-3,4.9841627E-3,1.6810726E-2,2.1852355E-2,0E0,0E0,0E0,0E0,0E0,1.1158464E-3,0E0,0E0,7.946307E-3,0E0,0E0,8.978749E-3,8.8243047E-4,0E0,2.014596E-2,1.7715057E-2,1.1625397E-2,3.435824E-3,0E0,0E0,0E0,0E0,0E0,0E0,0E0,0E0,0E0,0E0],"parents":[2147483647,0,0,1,1,2,2,3,3,4,4,5,5,6,6,7,7,8,8,9,9,10,10,16,16,19,19,22,22,23,23,25,25,26,26,27,27,28,28],"right_children":[2,4,6,8,10,12,14,16,18,20,22,-1,-1,-1,-1,-1,24,-1,-1,26,-1,-1,28,30,-1,32,34,36,38,-1,-1,-1,-1,-1,-1,-1,-1,-1,-1],"split_conditions":[1E0,5.688185E-1,1E0,5.237515E-1,-5.2621394E-1,7.667343E-1,9.469301E-1,-9.8768836E-1,5.6723714E-1,-6.593458E-1,5.9317905E-1,1.3368335E-2,8.202227E-3,2.2103875E-3,3.384184E-3,-1.6723668E-2,9.5740366E-1,-3.7751548E-2,-6.580357E-3,6.819984E-1,-2.1644073E-2,2.7999772E-2,6.9625E-1,-3.8671097E-1,1.6155445E-3,2.0364176E-1,5.834348E-1,-8.746197E-1,7.489768E-1,-8.674649E-3,-2.4874792E-3,-2.8317657E-3,9.91265E-3,-2.501622E-2,-4.107835E-3,3.3170604E-3,-1.0589508E-2,1.200061E-2,-5.514387E-4],"split_indices":[0,0,2,0,5,2,3,6,0,5,0,0,0,0,0,0,2,0,0,3,0,0,0,3,0,3,0,3,2,0,0,0,0,0,0,0,0,0,0],"split_type":[0,0,0,0,0,0,0,0,0,0,0,0,0,0,0,0,0,0,0,0,0,0,0,0,0,0,0,0,0,0,0,0,0,0,0,0,0,0,0],"sum_hessian":[3.3993866E2,2.132408E2,1.26697876E2,1.4929402E1,1.9831139E2,2.6038164E1,1.00659706E2,1.254869E1,2.3807125E0,1.6328905E2,3.502234E1,2.5078835E0,2.3530281E1,2.3413418E1,7.724629E1,1.1303654E0,1.1418324E1,1.1366727E0,1.2440398E0,1.5990681E2,3.382238E0,2.2527487E0,3.2769592E1,9.846933E0,1.5713909E0,1.250161E2,3.489072E1,2.2772688E1,9.996904E0,4.913933E0,4.9330006E0,1.1362917E2,1.1386919E1,3.2321165E0,3.1658602E1,1.5769578E1,7.003109E0,7.5609484E0,2.4359562E0],"tree_param":{"num_deleted":"0","num_feature":"9","num_nodes":"39","size_leaf_vector":"1"}},{"base_weights":[-9.663577E-9,-8.513757E-3,1.4285391E-2,-3.452755E-2,-5.5981753E-3,8.715427E-3,1.0218104E-2,-7.777872E-2,1.9120064E-2,4.0340353E-2,-7.602978E-3,2.167109E-3,3.3057693E-3,-2.8766792E-2,-1.2467718E-1,-1.6728504E-2,3.8915083E-2,-9.82044E-3,1.6503744E-2,-1.836584E-4,-1.2843723E-2,-9.179319E-3,-4.6190843E-2,-3.7373114E-2,-3.4043782E-3,-2.6448397E-2,-6.851741E-3,2.633812E-2,-2.5371771E-2,-3.120113E-3,2.8149546E-3,-1.4970288E-2,-2.35112E-3,2.0517432E-3,-5.011957E-3,8.492133E-4,-9.040943E-3,-7.3928963E-3,-1.144061E-3,1.076452E-2,2.7178656E-3,-1.2860099E-3,-1.0020255E-2],"categories":[],"categories_nodes":[],"categories_segments":[],"categories_sizes":[],"default_left":[0,0,0,0,0,0,0,0,0,0,0,0,0,0,0,0,0,0,0,0,0,0,0,0,0,0,0,0,0,0,0,0,0,0,0,0,0,0,0,0,0,0,0],"id":25,"left_children":[1,3,5,7,9,-1,11,13,15,-1,17,-1,-1,19,21,23,-1,25,27,29,-1,-1,-1,31,33,35,37,39,41,-1,-1,-1,-1,-1,-1,-1,-1,-1,-1,-1,-1,-1,-1],"loss_changes":[4.155638E-2,1.6044507E-2,7.3660873E-3,5.1102962E-2,5.541642E-2,0E0,1.6408134E-4,2.4079226E-2,4.3193694E-2,0E0,1.0421344E-2,0E0,0E0,2.8768163E-3,1.1412226E-2,2.2658943E-3,0E0,8.525545E-3,7.4796705E-3,4.2715226E-4,0E0,0E0,0E0,8.345628E-4,9.846498E-4,2.9328726E-3,8.06867E-3,1.964543E-3,4.755801E-4,0E0,0E0,0E0,0E0,0E0,0E0,0E0,0E0,0E0,0E0,0E0,0E0,0E0,0E0],"parents":[2147483647,0,0,1,1,2,2,3,3,4,4,6,6,7,7,8,8,10,10,13,13,14,14,15,15,17,17,18,18,19,19,23,23,24,24,25,25,26,26,27,27,28,28],"right_children":[2,4,6,8,10,-1,12,14,16,-1,18,-1,-1,20,22,24,-1,26,28,30,-1,-1,-1,32,34,36,38,40,42,-1,-1,-1,-1,-1,-1,-1,-1,-1,-1,-1,-1,-1,-1],"split_conditions":[1E0,5.834348E-1,1E0,5.3729963E-1,5.875E-1,8.715427E-3,9.469301E-1,5.45676E-1,5.688185E-1,4.0340353E-2,6.123234E-17,2.167109E-3,3.3057693E-3,4.0703177E-1,-9.8078525E-1,7.605364E-1,3.8915083E-2,3.4379265E-1,-2.6176948E-2,6.755902E-1,-1.2843723E-2,-9.179319E-3,-4.6190843E-2,-7.518398E-1,1E0,1E0,6.80877E-1,-9.3200785E-1,4.8158255E-1,-3.120113E-3,2.8149546E-3,-1.4970288E-2,-2.35112E-3,2.0517432E-3,-5.011957E-3,8.492133E-4,-9.040943E-3,-7.3928963E-3,-1.144061E-3,1.076452E-2,2.7178656E-3,-1.2860099E-3,-1.0020255E-2],"split_indices":[0,0,2,6,0,0,3,0,0,0,4,0,0,2,5,2,0,2,5,3,0,0,0,3,7,7,0,3,2,0,0,0,0,0,0,0,0,0,0,0,0,0,0],"split_type":[0,0,0,0,0,0,0,0,0,0,0,0,0,0,0,0,0,0,0,0,0,0,0,0,0,0,0,0,0,0,0,0,0,0,0,0,0,0,0,0,0,0,0],"sum_hessian":[3.3968393E2,2.1309097E2,1.2659295E2,2.0383162E1,1.9270781E2,2.6012716E1,1.0058024E2,1.1036019E1,9.347142E0,1.7869824E0,1.9092082E2,2.3343842E1,7.72364E1,6.1853313E0,4.850688E0,7.7000217E0,1.6471205E0,1.75381E2,1.5539829E1,2.371781E0,3.8135502E0,1.6371479E0,3.2135398E0,2.3123343E0,5.3876877E0,2.5370329E1,1.5001067E2,1.288488E1,2.6549492E0,1.104802E0,1.2669792E0,1.139512E0,1.1728224E0,3.3182666E0,2.0694208E0,2.8642168E0,2.2506111E1,2.0843487E1,1.2916719E2,7.6067324E0,5.278148E0,1.1551967E0,1.4997525E0],"tree_param":{"num_deleted":"0","num_feature":"9","num_nodes":"43","size_leaf_vector":"1"}},{"base_weights":[3.349305E-9,-8.318862E-3,1.3921861E-2,-1.1813958E-2,4.3339296E-3,8.348153E-3,1.0068413E-2,-5.153161E-2,-9.373225E-3,3.583734E-2,-4.825499E-3,2.1550804E-3,3.2508613E-3,3.2217142E-3,-7.092868E-2,3.1444836E-2,-1.0424766E-2,-4.0144115E-3,4.754073E-2,-1.3585821E-2,3.011066E-2,2.981773E-3,-1.6372129E-3,-8.96349E-2,-5.8137984E-3,1.2673675E-3,1.3501353E-2,-2.4033966E-2,-7.5900923E-3,2.7051488E-2,1.449123E-2,-2.080777E-2,-8.314311E-3,1.1405717E-2,2.388767E-3,-3.021421E-2,-7.573416E-3,-7.6751686E-3,1.8335495E-3,6.7744628E-3,-2.703193E-3,-4.8667187E-4,9.104403E-3,-1.3329827E-2,-1.2570259E-3],"categories":[],"categories_nodes":[],"categories_segments":[],"categories_sizes":[],"default_left":[0,0,0,0,0,0,0,0,0,0,0,0,0,0,0,0,0,0,0,0,0,0,0,0,0,0,0,0,0,0,0,0,0,0,0,0,0,0,0,0,0,0,0,0,0],"id":26,"left_children":[1,3,5,7,9,-1,11,13,15,17,19,-1,-1,21,23,25,27,-1,29,31,33,-1,-1,35,-1,-1,-1,37,39,-1,41,-1,43,-1,-1,-1,-1,-1,-1,-1,-1,-1,-1,-1,-1],"loss_changes":[3.9533224E-2,9.500395E-3,6.5612514E-3,1.5773196E-2,1.3729043E-2,0E0,1.4706142E-4,1.0303324E-2,7.1612652E-3,6.8001915E-3,1.1818273E-2,0E0,0E0,2.5468715E-4,5.059384E-3,1.3775867E-3,5.834138E-3,0E0,1.118334E-2,8.388882E-3,1.0607867E-3,0E0,0E0,9.4999E-4,0E0,0E0,0E0,1.3909712E-3,5.7983003E-3,0E0,1.629572E-3,0E0,4.1332245E-3,0E0,0E0,0E0,0E0,0E0,0E0,0E0,0E0,0E0,0E0,0E0,0E0],"parents":[2147483647,0,0,1,1,2,2,3,3,4,4,6,6,7,7,8,8,9,9,10,10,13,13,14,14,15,15,16,16,18,18,19,19,20,20,23,23,27,27,28,28,30,30,32,32],"right_children":[2,4,6,8,10,-1,12,14,16,18,20,-1,-1,22,24,26,28,-1,30,32,34,-1,-1,36,-1,-1,-1,38,40,-1,42,-1,44,-1,-1,-1,-1,-1,-1,-1,-1,-1,-1,-1,-1],"split_conditions":[1E0,1.9509032E-1,1E0,5.834348E-1,-8.433914E-1,8.348153E-3,9.469301E-1,4.73397E-1,-9.9496853E-1,5.6875E-1,6.80877E-1,2.1550804E-3,3.2508613E-3,3.5879946E-1,-4.363309E-3,1.7794354E-1,3.9290586E-1,-4.0144115E-3,5.925E-1,-6.593458E-1,6.619337E-1,2.981773E-3,-1.6372129E-3,9.0613025E-1,-5.8137984E-3,1.2673675E-3,1.3501353E-2,2.1217768E-1,-9.702957E-1,2.7051488E-2,8.4352076E-1,-2.080777E-2,3.204868E-1,1.1405717E-2,2.388767E-3,-3.021421E-2,-7.573416E-3,-7.6751686E-3,1.8335495E-3,6.7744628E-3,-2.703193E-3,-4.8667187E-4,9.104403E-3,-1.3329827E-2,-1.2570259E-3],"split_indices":[0,6,2,0,4,0,3,2,5,0,0,0,0,2,4,3,2,0,0,4,2,0,0,2,0,0,0,5,6,0,0,0,2,0,0,0,0,0,0,0,0,0,0,0,0],"split_type":[0,0,0,0,0,0,0,0,0,0,0,0,0,0,0,0,0,0,0,0,0,0,0,0,0,0,0,0,0,0,0,0,0,0,0,0,0,0,0,0,0,0,0,0,0],"sum_hessian":[3.3935086E2,2.1267282E2,1.2667803E2,1.6669324E2,4.5979584E1,2.6137718E1,1.0054031E2,8.486158E0,1.5820708E2,9.700966E0,3.6278618E1,2.3310873E1,7.722944E1,2.4380445E0,6.048114E0,3.2474117E0,1.5495967E2,1.8360531E0,7.8649125E0,2.9494045E1,6.784575E0,1.292482E0,1.1455624E0,3.8956454E0,2.1524684E0,1.5158935E0,1.7315181E0,2.54235E1,1.2953616E2,2.6798131E0,5.185099E0,1.4971013E0,2.7996943E1,4.471396E0,2.3131788E0,2.8424466E0,1.0531987E0,2.4324213E1,1.0992879E0,5.154812E0,1.24381355E2,3.0169768E0,2.1681225E0,1.867599E0,2.6129345E1],"tree_param":{"num_deleted":"0","num_feature":"9","num_nodes":"45","size_leaf_vector":"1"}},{"base_weights":[-2.4705047E-8,-8.045569E-3,1.3468428E-2,-1.0764981E-2,7.978594E-3,8.1472155E-3,9.845653E-3,-3.141264E-2,-6.830563E-3,2.7607197E-2,2.1060294E-4,-1.7539626E-3,3.0460644E-3,-3.870294E-2,-8.084994E-3,1.557446E-2,-1.0476149E-2,-7.1029905E-3,2.3907991E-2,-1.6942952E-2,-6.685844E-2,-7.465443E-3,1.0656467E-2,-1.6766433E-2,2.0710267E-2,1.2527338E-2,-1.2711319E-2,-1.5624261E-2,4.494993E-3,9.768305E-3,1.1217718E-3,1.965614E-3,-9.40682E-3,-1.3630121E-2,-2.7449109E-2,-2.104506E-3,8.356508E-3,-6.657443E-3,-1.2228577E-3,7.223151E-3,-3.4897262E-4,5.07231E-4,1.3649808E-2,-7.0992922E-3,-3.0361353E-3,-1.6127625E-3,-1.120804E-2],"categories":[],"categories_nodes":[],"categories_segments":[],"categories_sizes":[],"default_left":[0,0,0,0,0,0,0,0,0,0,0,0,0,0,0,0,0,0,0,0,0,0,0,0,0,0,0,0,0,0,0,0,0,0,0,0,0,0,0,0,0,0,0,0,0,0,0],"id":27,"left_children":[1,3,5,7,9,-1,11,13,15,-1,17,-1,-1,19,21,23,25,27,29,31,33,-1,35,37,39,41,43,45,-1,-1,-1,-1,-1,-1,-1,-1,-1,-1,-1,-1,-1,-1,-1,-1,-1,-1,-1],"loss_changes":[3.697102E-2,9.393438E-3,6.0601495E-3,1.4654046E-2,2.0587174E-2,0E0,5.544033E-4,4.621759E-3,1.2824483E-2,0E0,5.351041E-3,0E0,0E0,1.2249805E-2,2.8384782E-3,4.0171333E-3,7.044832E-3,4.6786526E-3,1.1486681E-3,4.831363E-3,6.903447E-4,0E0,1.5823359E-3,1.5604391E-4,1.4651688E-3,4.3406133E-3,3.2383073E-3,3.7042107E-3,0E0,0E0,0E0,0E0,0E0,0E0,0E0,0E0,0E0,0E0,0E0,0E0,0E0,0E0,0E0,0E0,0E0,0E0,0E0],"parents":[2147483647,0,0,1,1,2,2,3,3,4,4,6,6,7,7,8,8,10,10,13,13,14,14,15,15,16,16,17,17,18,18,19,19,20,20,22,22,23,23,24,24,25,25,26,26,27,27],"right_children":[2,4,6,8,10,-1,12,14,16,-1,18,-1,-1,20,22,24,26,28,30,32,34,-1,36,38,40,42,44,46,-1,-1,-1,-1,-1,-1,-1,-1,-1,-1,-1,-1,-1,-1,-1,-1,-1,-1,-1],"split_conditions":[1E0,8.503522E-1,8.40382E-1,6.80877E-1,-5.2249855E-1,8.1472155E-3,-3.8268343E-1,7.912536E-1,1E0,2.7607197E-2,6.80877E-1,-1.7539626E-3,3.0460644E-3,4.8478702E-1,5.6875E-1,-9.8555607E-1,9.0633243E-1,9.995336E-1,9.2637664E-1,5.875E-1,-5.1877326E-1,-7.465443E-3,-8.746197E-1,9.560514E-1,-9.584575E-2,8.141809E-1,9.7066015E-1,-9.44089E-1,4.494993E-3,9.768305E-3,1.1217718E-3,1.965614E-3,-9.40682E-3,-1.3630121E-2,-2.7449109E-2,-2.104506E-3,8.356508E-3,-6.657443E-3,-1.2228577E-3,7.223151E-3,-3.4897262E-4,5.07231E-4,1.3649808E-2,-7.0992922E-3,-3.0361353E-3,-1.6127625E-3,-1.120804E-2],"split_indices":[0,6,2,0,5,0,3,2,7,0,0,0,0,2,0,3,0,6,7,0,4,0,3,2,5,0,0,3,0,0,0,0,0,0,0,0,0,0,0,0,0,0,0,0,0,0,0],"split_type":[0,0,0,0,0,0,0,0,0,0,0,0,0,0,0,0,0,0,0,0,0,0,0,0,0,0,0,0,0,0,0,0,0,0,0,0,0,0,0,0,0,0,0,0,0,0,0],"sum_hessian":[3.3918375E2,2.1259196E2,1.2659177E2,1.8202864E2,3.0563328E1,2.5132025E1,1.0145974E2,2.801629E1,1.5401234E2,1.6681626E0,2.8895166E1,1.6062636E0,9.985348E1,2.084329E1,7.173E0,2.1094954E1,1.3291739E2,2.2615677E1,6.2794886E0,1.2660435E1,8.182857E0,3.609582E0,3.563418E0,2.5805094E0,1.8514444E1,1.1363556E1,1.2155384E2,1.6530508E1,6.08517E0,3.9642658E0,2.3152227E0,5.021019E0,7.6394157E0,5.898108E0,2.284748E0,2.049587E0,1.5138309E0,1.2832285E0,1.2972809E0,1.5957434E1,2.5570111E0,9.34388E0,2.019676E0,2.1696672E1,9.985717E1,1.2081466E1,4.4490414E0],"tree_param":{"num_deleted":"0","num_feature":"9","num_nodes":"47","size_leaf_vector":"1"}},{"base_weights":[3.8345593E-9,-7.848931E-3,1.3140253E-2,-1.0940994E-2,1.014331E-2,7.8090974E-3,9.5735695E-3,-3.2413937E-2,-6.83557E-3,3.65482E-2,-1.1604207E-3,1.995226E-3,3.107322E-3,-1.4192052E-2,-4.5471158E-2,1.3591542E-2,-1.011058E-2,-8.348535E-3,2.2139069E-2,-1.6276639E-2,-5.5521033E-3,-7.0205286E-2,-1.1426503E-2,-1.2015772E-2,1.7543482E-2,1.312984E-2,-1.2360397E-2,3.239099E-3,-2.2994587E-2,8.63958E-3,1.9566359E-3,3.862559E-3,-4.83147E-3,-7.1993233E-3,-2.4279542E-2,-7.871866E-3,1.8494406E-3,-4.3231724E-3,-1.2890254E-3,1.0254814E-2,3.8126418E-3,1.7002377E-3,1.0295523E-2,-6.9182892E-3,-2.9486844E-3,-7.7270065E-3,2.552479E-3,-3.0143962E-3,-1.1049726E-2],"categories":[],"categories_nodes":[],"categories_segments":[],"categories_sizes":[],"default_left":[0,0,0,0,0,0,0,0,0,0,0,0,0,0,0,0,0,0,0,0,0,0,0,0,0,0,0,0,0,0,0,0,0,0,0,0,0,0,0,0,0,0,0,0,0,0,0,0,0],"id":28,"left_children":[1,3,5,7,9,-1,11,13,15,-1,17,-1,-1,19,21,23,25,27,29,-1,31,33,35,37,39,41,43,45,47,-1,-1,-1,-1,-1,-1,-1,-1,-1,-1,-1,-1,-1,-1,-1,-1,-1,-1,-1,-1],"loss_changes":[3.5172425E-2,1.1988605E-2,5.613841E-3,1.588181E-2,4.0323865E-2,0E0,1.6367994E-4,6.2669255E-3,1.0481214E-2,0E0,5.1914994E-3,0E0,0E0,4.399861E-3,1.3067234E-2,2.4159886E-3,7.1596745E-3,4.074992E-3,5.7367655E-4,0E0,2.5964729E-3,2.6898496E-3,2.2790572E-3,2.9068324E-6,1.1168774E-3,1.7498303E-3,3.0924361E-3,2.363721E-3,1.5173741E-3,0E0,0E0,0E0,0E0,0E0,0E0,0E0,0E0,0E0,0E0,0E0,0E0,0E0,0E0,0E0,0E0,0E0,0E0,0E0,0E0],"parents":[2147483647,0,0,1,1,2,2,3,3,4,4,6,6,7,7,8,8,10,10,13,13,14,14,15,15,16,16,17,17,18,18,20,20,21,21,22,22,23,23,24,24,25,25,26,26,27,27,28,28],"right_children":[2,4,6,8,10,-1,12,14,16,-1,18,-1,-1,20,22,24,26,28,30,-1,32,34,36,38,40,42,44,46,48,-1,-1,-1,-1,-1,-1,-1,-1,-1,-1,-1,-1,-1,-1,-1,-1,-1,-1,-1,-1],"split_conditions":[1E0,8.503522E-1,1E0,6.80877E-1,-5.2249855E-1,7.8090974E-3,9.469301E-1,4.8478702E-1,1E0,3.65482E-2,6.80877E-1,1.995226E-3,3.107322E-3,3.096687E-1,7.912536E-1,-9.8555607E-1,9.0633243E-1,4.8294678E-1,6.971351E-1,-1.6276639E-2,5.875E-1,-7.7988446E-1,5.6875E-1,9.560514E-1,-9.9496853E-1,8.141809E-1,9.7066015E-1,6.7114913E-1,-9.624552E-1,8.63958E-3,1.9566359E-3,3.862559E-3,-4.83147E-3,-7.1993233E-3,-2.4279542E-2,-7.871866E-3,1.8494406E-3,-4.3231724E-3,-1.2890254E-3,1.0254814E-2,3.8126418E-3,1.7002377E-3,1.0295523E-2,-6.9182892E-3,-2.9486844E-3,-7.7270065E-3,2.552479E-3,-3.0143962E-3,-1.1049726E-2],"split_indices":[0,6,2,0,5,0,3,2,7,0,0,0,0,2,2,3,0,2,2,0,0,6,0,2,5,0,0,0,3,0,0,0,0,0,0,0,0,0,0,0,0,0,0,0,0,0,0,0,0],"split_type":[0,0,0,0,0,0,0,0,0,0,0,0,0,0,0,0,0,0,0,0,0,0,0,0,0,0,0,0,0,0,0,0,0,0,0,0,0,0,0,0,0,0,0,0,0,0,0,0,0],"sum_hessian":[3.3902646E2,2.1249913E2,1.2652732E2,1.8167006E2,3.0829075E1,2.6057335E1,1.00469986E2,2.805199E1,1.5361807E2,1.9348264E0,2.8894249E1,2.3258896E1,7.721109E1,1.2581252E1,1.5470739E1,2.0790724E1,1.3282735E2,2.2572197E1,6.322052E0,1.2953082E0,1.1285944E1,8.3454485E0,7.125291E0,2.5068245E0,1.82839E1,1.1296759E1,1.2153059E2,1.3036694E1,9.535503E0,3.8403516E0,2.4817004E0,4.0295196E0,7.256424E0,2.1822054E0,6.1632433E0,3.6012106E0,3.5240798E0,1.2516216E0,1.255203E0,2.7497885E0,1.553411E1,9.291776E0,2.0049837E0,2.1698807E1,9.983178E1,1.40683E0,1.1629863E1,5.8181753E0,3.717328E0],"tree_param":{"num_deleted":"0","num_feature":"9","num_nodes":"49","size_leaf_vector":"1"}},{"base_weights":[-3.936549E-9,-7.6567777E-3,1.27932085E-2,-2.2178782E-2,-5.3930427E-3,7.5557027E-3,9.352486E-3,8.660729E-3,-2.5791038E-2,-3.8731862E-3,-3.297555E-2,1.9416715E-3,3.0377095E-3,-9.736001E-4,5.756691E-3,-2.0388402E-2,-2.105218E-2,-7.3179444E-3,1.03048375E-2,-5.221184E-2,-1.7310964E-2,2.0646174E-3,-6.8474724E-3,-9.059269E-3,8.578546E-3,3.0142147E-2,3.4942923E-4,-2.1994498E-2,-4.554564E-3,-8.480496E-3,-1.0455092E-3,-2.9786017E-3,2.9786034E-3,-5.142431E-3,3.6964812E-3,1.0999347E-2,4.415332E-3,-2.0380684E-3,9.74572E-3,1.1491597E-3,-1.7982335E-3],"categories":[],"categories_nodes":[],"categories_segments":[],"categories_sizes":[],"default_left":[0,0,0,0,0,0,0,0,0,0,0,0,0,0,0,0,0,0,0,0,0,0,0,0,0,0,0,0,0,0,0,0,0,0,0,0,0,0,0,0,0],"id":29,"left_children":[1,3,5,7,9,-1,11,13,15,17,19,-1,-1,-1,-1,-1,21,23,25,27,29,-1,-1,31,33,35,37,-1,-1,-1,39,-1,-1,-1,-1,-1,-1,-1,-1,-1,-1],"loss_changes":[3.33765E-2,6.887744E-3,5.2041616E-3,3.3899602E-3,7.6584704E-3,0E0,1.6038213E-4,5.297047E-4,3.7043989E-3,8.728178E-3,1.9788882E-3,0E0,0E0,0E0,0E0,0E0,1.3727546E-3,4.039409E-3,6.9106985E-3,1.8547513E-3,1.1768385E-3,0E0,0E0,2.2359975E-3,1.6209489E-3,6.3735247E-4,5.809546E-3,0E0,0E0,0E0,1.1375845E-4,0E0,0E0,0E0,0E0,0E0,0E0,0E0,0E0,0E0,0E0],"parents":[2147483647,0,0,1,1,2,2,3,3,4,4,6,6,7,7,8,8,9,9,10,10,16,16,17,17,18,18,19,19,20,20,23,23,24,24,25,25,26,26,30,30],"right_children":[2,4,6,8,10,-1,12,14,16,18,20,-1,-1,-1,-1,-1,22,24,26,28,30,-1,-1,32,34,36,38,-1,-1,-1,40,-1,-1,-1,-1,-1,-1,-1,-1,-1,-1],"split_conditions":[1E0,3.387424E-1,1E0,-7.1018535E-1,-8.726535E-3,7.5557027E-3,9.469301E-1,-9.7337925E-1,3.096687E-1,2.3768589E-1,-9.1501616E-2,1.9416715E-3,3.0377095E-3,-9.736001E-4,5.756691E-3,-2.0388402E-2,-9.099613E-1,-8.7155744E-2,5.771452E-1,7.7899045E-1,3.9874908E-1,2.0646174E-3,-6.8474724E-3,-9.584575E-2,-7.1018535E-1,-8.433914E-1,-3.4611705E-1,-2.1994498E-2,-4.554564E-3,-8.480496E-3,6.80877E-1,-2.9786017E-3,2.9786034E-3,-5.142431E-3,3.6964812E-3,1.0999347E-2,4.415332E-3,-2.0380684E-3,9.74572E-3,1.1491597E-3,-1.7982335E-3],"split_indices":[0,2,2,6,5,0,3,6,2,3,4,0,0,0,0,0,5,4,3,2,5,0,0,5,6,5,5,0,0,0,0,0,0,0,0,0,0,0,0,0,0],"split_type":[0,0,0,0,0,0,0,0,0,0,0,0,0,0,0,0,0,0,0,0,0,0,0,0,0,0,0,0,0,0,0,0,0,0,0,0,0,0,0,0,0],"sum_hessian":[3.3873392E2,2.1215816E2,1.2657576E2,2.742535E1,1.847328E2,2.6132902E1,1.00442856E2,2.729002E0,2.4696348E1,1.7616609E2,8.566716E0,2.3240736E1,7.720212E1,1.6053318E0,1.1236703E0,1.1471115E0,2.3549238E1,1.4211984E2,3.4046246E1,2.7978332E0,5.768883E0,1.2332816E0,2.2315956E1,1.2847646E2,1.3643391E1,1.0699175E1,2.3347069E1,1.1580086E0,1.6398246E0,3.0059588E0,2.7629242E0,1.2330767E2,5.1687903E0,1.2785375E0,1.2364853E1,6.551685E0,4.14749E0,1.9746567E1,3.6005015E0,1.5054677E0,1.2574567E0],"tree_param":{"num_deleted":"0","num_feature":"9","num_nodes":"41","size_leaf_vector":"1"}},{"base_weights":[7.547121E-9,-7.4201315E-3,1.2402259E-2,-2.1706358E-2,-5.195616E-3,7.3469947E-3,9.196208E-3,6.5609366E-3,-2.4974687E-2,-2.7029313E-2,-3.5100859E-3,-1.1771198E-3,9.442795E-3,-1.5126078E-3,5.287334E-3,-1.8427989E-2,-2.0821793E-2,-8.417233E-3,-4.2196818E-2,4.4753063E-3,-9.318817E-3,2.2573045E-3,2.970188E-3,8.824302E-4,-6.6631306E-3,3.1743417E-3,-1.5785046E-2,-5.7461433E-2,-2.5478525E-3,-7.6330206E-3,1.5957944E-2,-2.970188E-3,-2.0987769E-3,-8.703979E-3,-9.376229E-4,-2.6058625E-2,-6.527528E-3,4.3672286E-3,-4.8195436E-3,3.526374E-3,1.0605792E-2],"categories":[],"categories_nodes":[],"categories_segments":[],"categories_sizes":[],"default_left":[0,0,0,0,0,0,0,0,0,0,0,0,0,0,0,0,0,0,0,0,0,0,0,0,0,0,0,0,0,0,0,0,0,0,0,0,0,0,0,0,0],"id":30,"left_children":[1,3,5,7,9,-1,11,13,15,17,19,-1,21,-1,-1,-1,23,25,27,29,31,-1,-1,-1,-1,-1,33,35,-1,37,39,-1,-1,-1,-1,-1,-1,-1,-1,-1,-1],"loss_changes":[3.134417E-2,6.6596083E-3,4.7157854E-3,2.787359E-3,6.739343E-3,0E0,3.6824308E-4,5.6832144E-4,2.6057195E-3,3.3597434E-3,8.09164E-3,0E0,1.4018267E-5,0E0,0E0,0E0,8.754516E-4,1.1689753E-3,3.1141313E-3,1.0376533E-2,6.695278E-5,0E0,0E0,0E0,0E0,0E0,8.402682E-4,2.986434E-3,0E0,7.077777E-3,2.6969705E-3,0E0,0E0,0E0,0E0,0E0,0E0,0E0,0E0,0E0,0E0],"parents":[2147483647,0,0,1,1,2,2,3,3,4,4,6,6,7,7,8,8,9,9,10,10,12,12,16,16,17,17,18,18,19,19,20,20,26,26,27,27,29,29,30,30],"right_children":[2,4,6,8,10,-1,12,14,16,18,20,-1,22,-1,-1,-1,24,26,28,30,32,-1,-1,-1,-1,-1,34,36,-1,38,40,-1,-1,-1,-1,-1,-1,-1,-1,-1,-1],"split_conditions":[1E0,3.387424E-1,8.40382E-1,-7.1018535E-1,5.6875E-1,7.3469947E-3,-3.8268343E-1,-9.7337925E-1,3.096687E-1,-1.3485093E-1,9.849095E-1,-1.1771198E-3,9.469301E-1,-1.5126078E-3,5.287334E-3,-1.8427989E-2,-9.099613E-1,4.640682E-1,9.6704596E-1,6.80877E-1,9.973615E-1,2.2573045E-3,2.970188E-3,8.824302E-4,-6.6631306E-3,3.1743417E-3,4.8098877E-1,7.7899045E-1,-2.5478525E-3,5.9317905E-1,-3.4611705E-1,-2.970188E-3,-2.0987769E-3,-8.703979E-3,-9.376229E-4,-2.6058625E-2,-6.527528E-3,4.3672286E-3,-4.8195436E-3,3.526374E-3,1.0605792E-2],"split_indices":[0,2,2,6,0,0,3,6,2,5,0,0,3,0,0,0,5,0,3,0,0,0,0,0,0,0,6,2,0,0,5,0,0,0,0,0,0,0,0,0,0],"split_type":[0,0,0,0,0,0,0,0,0,0,0,0,0,0,0,0,0,0,0,0,0,0,0,0,0,0,0,0,0,0,0,0,0,0,0,0,0,0,0,0,0],"sum_hessian":[3.3859967E2,2.1210257E2,1.2649708E2,2.7396935E1,1.8470564E2,2.5126043E1,1.0137104E2,2.7349887E0,2.4661945E1,1.2159544E1,1.725461E2,1.5950004E0,9.977604E1,1.6006044E0,1.1343843E0,1.1118058E0,2.355014E1,6.158E0,6.0015445E0,7.275615E1,9.978995E1,2.2582668E1,7.719337E1,1.2384733E0,2.2311666E1,1.5989294E0,4.5590706E0,3.6455705E0,2.355974E0,3.5576424E1,3.717973E1,7.719337E1,2.2596579E1,1.5977594E0,2.9613113E0,1.2134304E0,2.4321399E0,9.596172E0,2.5980251E1,3.1877144E1,5.3025837E0],"tree_param":{"num_deleted":"0","num_feature":"9","num_nodes":"41","size_leaf_vector":"1"}},{"base_weights":[-6.110085E-9,-7.26488E-3,1.2132999E-2,-2.095013E-2,-5.1326742E-3,7.1030827E-3,8.927934E-3,7.4606366E-3,-2.427598E-2,-3.8300364E-3,-2.891354E-2,1.8358515E-3,2.905089E-3,-8.455843E-4,4.915429E-3,-1.6720327E-2,-2.0615986E-2,4.7309226E-3,-8.146253E-3,-3.899812E-2,-1.2017114E-2,-7.715334E-4,-6.5099625E-3,-6.5131234E-3,1.8541995E-2,-9.1833575E-3,1.0735723E-2,-1.8242707E-2,-1.3023344E-2,-7.0423163E-3,-2.6959965E-3,1.8963245E-3,-7.340631E-3,2.7068085E-3,8.787082E-3,-7.997251E-3,-2.6091104E-3,-1.5632351E-3,4.646009E-3,-2.9559236E-4,-5.681927E-3,1.7655463E-3,-2.5236043E-3],"categories":[],"categories_nodes":[],"categories_segments":[],"categories_sizes":[],"default_left":[0,0,0,0,0,0,0,0,0,0,0,0,0,0,0,0,0,0,0,0,0,0,0,0,0,0,0,0,0,0,0,0,0,0,0,0,0,0,0,0,0,0,0],"id":31,"left_children":[1,3,5,7,9,-1,11,13,15,17,19,-1,-1,-1,-1,-1,21,23,25,27,29,-1,-1,31,33,35,37,-1,39,-1,41,-1,-1,-1,-1,-1,-1,-1,-1,-1,-1,-1,-1],"loss_changes":[3.0008696E-2,6.1061177E-3,4.506154E-3,2.8627878E-3,5.63761E-3,0E0,1.5594717E-4,3.8917913E-4,1.8032752E-3,6.581786E-3,1.1473624E-3,0E0,0E0,0E0,0E0,0E0,4.2446144E-4,9.436233E-3,2.4111457E-3,2.3204861E-3,4.6963734E-4,0E0,0E0,7.94522E-3,2.5167046E-3,7.240465E-4,5.814522E-4,0E0,2.5056355E-4,0E0,2.3988634E-4,0E0,0E0,0E0,0E0,0E0,0E0,0E0,0E0,0E0,0E0,0E0,0E0],"parents":[2147483647,0,0,1,1,2,2,3,3,4,4,6,6,7,7,8,8,9,9,10,10,16,16,17,17,18,18,19,19,20,20,23,23,24,24,25,25,26,26,28,28,30,30],"right_children":[2,4,6,8,10,-1,12,14,16,18,20,-1,-1,-1,-1,-1,22,24,26,28,30,-1,-1,32,34,36,38,-1,40,-1,42,-1,-1,-1,-1,-1,-1,-1,-1,-1,-1,-1,-1],"split_conditions":[1E0,3.387424E-1,1E0,-7.1018535E-1,-8.726535E-3,7.1030827E-3,9.469301E-1,-9.7337925E-1,3.096687E-1,7.647059E-1,9.7337925E-1,1.8358515E-3,2.905089E-3,-8.455843E-4,4.915429E-3,-1.6720327E-2,-8.064446E-1,6.80877E-1,-1.3052619E-1,5.6516445E-1,2.1217768E-1,-7.715334E-4,-6.5099625E-3,4.8478702E-1,8.4352076E-1,5.103532E-1,8.857336E-1,-1.8242707E-2,6.4914423E-1,-7.0423163E-3,3.9621365E-1,1.8963245E-3,-7.340631E-3,2.7068085E-3,8.787082E-3,-7.997251E-3,-2.6091104E-3,-1.5632351E-3,4.646009E-3,-2.9559236E-4,-5.681927E-3,1.7655463E-3,-2.5236043E-3],"split_indices":[0,2,2,6,5,0,3,6,2,2,3,0,0,0,0,0,5,0,4,0,5,0,0,2,0,0,2,0,0,0,2,0,0,0,0,0,0,0,0,0,0,0,0],"split_type":[0,0,0,0,0,0,0,0,0,0,0,0,0,0,0,0,0,0,0,0,0,0,0,0,0,0,0,0,0,0,0,0,0,0,0,0,0,0,0,0,0,0,0],"sum_hessian":[3.3844788E2,2.119437E2,1.26504196E2,2.738049E1,1.845632E2,2.6102251E1,1.0040195E2,2.739065E0,2.4641424E1,1.7607922E2,8.483985E0,2.321706E1,7.718489E1,1.5908281E0,1.148237E0,1.0852731E0,2.355615E1,5.898665E1,1.1709257E2,4.493804E0,3.9901817E0,1.5259192E0,2.2030231E1,3.2806343E1,2.6180304E1,1.1148295E2,5.609622E0,1.7137204E0,2.7800834E0,1.1088293E0,2.8813524E0,1.9509468E1,1.3296874E1,1.4859403E1,1.1320901E1,1.5615118E0,1.0992143E2,1.2654368E0,4.3441854E0,1.3005044E0,1.4795789E0,1.1401366E0,1.7412158E0],"tree_param":{"num_deleted":"0","num_feature":"9","num_nodes":"43","size_leaf_vector":"1"}},{"base_weights":[4.0151935E-9,-7.065446E-3,1.1801214E-2,-2.0668086E-2,-4.9470896E-3,6.849093E-3,8.7401E-3,5.76093E-3,-2.3721907E-2,-7.963674E-3,4.8029525E-3,1.7904149E-3,2.8460186E-3,-1.1516011E-3,4.3765176E-3,-1.5336788E-2,-2.0459414E-2,-4.92669E-2,-5.33551E-3,4.9265184E-2,6.420705E-4,-1.7518019E-3,-6.355291E-3,-1.8663783E-2,-2.4250798E-2,-8.332818E-3,8.677974E-3,2.0332133E-2,4.8379772E-3,-6.2547596E-3,1.7525816E-2,-1.3296591E-2,-8.3799526E-4,-2.7477564E-3,1.6784811E-3,9.938203E-4,1.2965384E-2,2.5303074E-4,-7.338417E-3,3.690708E-3,9.91313E-3],"categories":[],"categories_nodes":[],"categories_segments":[],"categories_sizes":[],"default_left":[0,0,0,0,0,0,0,0,0,0,0,0,0,0,0,0,0,0,0,0,0,0,0,0,0,0,0,0,0,0,0,0,0,0,0,0,0,0,0,0,0],"id":32,"left_children":[1,3,5,7,9,-1,11,13,15,17,19,-1,-1,-1,-1,-1,21,23,25,27,29,-1,-1,31,-1,33,35,-1,-1,37,39,-1,-1,-1,-1,-1,-1,-1,-1,-1,-1],"loss_changes":[2.8378032E-2,6.0321195E-3,4.103549E-3,2.4264762E-3,5.4945853E-3,0E0,1.5322072E-4,3.7320476E-4,1.2450526E-3,1.5157609E-2,8.193289E-3,0E0,0E0,0E0,0E0,0E0,1.3667066E-4,6.5843984E-3,5.729221E-3,1.2324266E-3,4.9615335E-3,0E0,0E0,2.137727E-3,0E0,1.3340814E-3,4.345248E-3,0E0,0E0,3.939001E-3,5.9432536E-4,0E0,0E0,0E0,0E0,0E0,0E0,0E0,0E0,0E0,0E0],"parents":[2147483647,0,0,1,1,2,2,3,3,4,4,6,6,7,7,8,8,9,9,10,10,16,16,17,17,18,18,19,19,20,20,23,23,25,25,26,26,29,29,30,30],"right_children":[2,4,6,8,10,-1,12,14,16,18,20,-1,-1,-1,-1,-1,22,24,26,28,30,-1,-1,32,-1,34,36,-1,-1,38,40,-1,-1,-1,-1,-1,-1,-1,-1,-1,-1],"split_conditions":[1E0,3.387424E-1,1E0,-7.1018535E-1,1.9509032E-1,6.849093E-3,9.469301E-1,-9.7337925E-1,3.096687E-1,5.834348E-1,-9.692309E-1,1.7904149E-3,2.8460186E-3,-1.1516011E-3,4.3765176E-3,-1.5336788E-2,-8.064446E-1,5.237515E-1,4.539905E-1,-8.433914E-1,6.80877E-1,-1.7518019E-3,-6.355291E-3,-9.469301E-1,-2.4250798E-2,8.857336E-1,7.2605366E-1,2.0332133E-2,4.8379772E-3,5.469912E-1,8.6674815E-1,-1.3296591E-2,-8.3799526E-4,-2.7477564E-3,1.6784811E-3,9.938203E-4,1.2965384E-2,2.5303074E-4,-7.338417E-3,3.690708E-3,9.91313E-3],"split_indices":[0,2,2,6,6,0,3,6,2,0,4,0,0,0,0,0,5,0,3,5,0,0,0,6,0,2,2,0,0,2,0,0,0,0,0,0,0,0,0,0,0],"split_type":[0,0,0,0,0,0,0,0,0,0,0,0,0,0,0,0,0,0,0,0,0,0,0,0,0,0,0,0,0,0,0,0,0,0,0,0,0,0,0,0,0],"sum_hessian":[3.383423E2,2.1188614E2,1.2645612E2,2.737108E1,1.8451506E2,2.6069687E1,1.0038644E2,2.7432668E0,2.4627813E1,1.4105653E2,4.3458534E1,2.3209295E1,7.717714E1,1.5848904E0,1.1583763E0,1.0595098E0,2.3568304E1,7.3769794E0,1.3367955E2,2.791297E0,4.0667236E1,1.5411336E0,2.202717E1,4.5537615E0,2.8232183E0,1.1045911E2,2.3220442E1,1.1203799E0,1.670917E0,2.9319906E1,1.134733E1,1.0551463E0,3.4986148E0,1.0459556E2,5.86355E0,2.1047028E1,2.1734138E0,2.1781612E1,7.5382943E0,9.830944E0,1.516386E0],"tree_param":{"num_deleted":"0","num_feature":"9","num_nodes":"41","size_leaf_vector":"1"}},{"base_weights":[7.1695614E-9,-6.871159E-3,1.1466054E-2,-1.9645793E-2,-4.8754783E-3,6.6745686E-3,8.601071E-3,5.879716E-3,-2.2657046E-2,8.6845085E-3,-7.052139E-3,-1.3063829E-3,8.853183E-3,-9.2920585E-4,4.183906E-3,-1.3771194E-2,-1.9799521E-2,1.2503854E-3,2.3010531E-2,-3.0881742E-2,-4.57713E-3,2.10688E-3,2.7873514E-3,-1.2443485E-3,-6.1998586E-3,-1.1055511E-2,5.6818146E-3,-3.2930627E-2,-1.6869998E-2,4.3838583E-3,-8.675566E-3,-6.091721E-3,-6.144532E-4,-2.9667227E-3,2.3640303E-3,-1.4302744E-2,-1.9495722E-3,-3.3658952E-3,4.3196976E-3,-2.7873514E-3,-1.8795562E-3],"categories":[],"categories_nodes":[],"categories_segments":[],